digraph Tree {
node [shape=box, style="filled, rounded", color="black", fontname="helvetica"] ;
edge [fontname="helvetica"] ;
0 [label="EDAR_Mean-1 <= 0.2\ngini = 0.63\nsamples = 5914\nvalue = [4034, 1648, 3651]\nclass = Not stressed", fillcolor="#fdf7f2"] ;
1 [label="HRR_Mean-3 <= 0.1\ngini = 0.54\nsamples = 2702\nvalue = [2636, 601, 1025]\nclass = Not stressed", fillcolor="#f2c09c"] ;
0 -> 1 [labeldistance=2.5, labelangle=45, headlabel="True"] ;
2 [label="HRR_Mean-4 <= 0.08\ngini = 0.15\nsamples = 606\nvalue = [885, 43, 36]\nclass = Not stressed", fillcolor="#e78c4a"] ;
1 -> 2 ;
3 [label="gini = 0.0\nsamples = 349\nvalue = [547, 0, 0]\nclass = Not stressed", fillcolor="#e58139"] ;
2 -> 3 ;
4 [label="TEMPR_Max <= 0.36\ngini = 0.32\nsamples = 257\nvalue = [338, 43, 36]\nclass = Not stressed", fillcolor="#ea9c63"] ;
2 -> 4 ;
5 [label="HRR_Mean <= 0.68\ngini = 0.65\nsamples = 60\nvalue = [28, 43, 30]\nclass = Middle Value", fillcolor="#dbfae8"] ;
4 -> 5 ;
6 [label="TEMPR_Mean <= 0.32\ngini = 0.51\nsamples = 48\nvalue = [2, 43, 30]\nclass = Middle Value", fillcolor="#c6f7db"] ;
5 -> 6 ;
7 [label="EDAR_Mean-2 <= 0.18\ngini = 0.29\nsamples = 33\nvalue = [1, 43, 8]\nclass = Middle Value", fillcolor="#62ea9b"] ;
6 -> 7 ;
8 [label="HRR_Mean-8 <= 0.08\ngini = 0.25\nsamples = 32\nvalue = [1, 43, 6]\nclass = Middle Value", fillcolor="#58e995"] ;
7 -> 8 ;
9 [label="gini = 0.0\nsamples = 1\nvalue = [0, 0, 2]\nclass = Stressed", fillcolor="#8139e5"] ;
8 -> 9 ;
10 [label="HRR_Max <= 0.61\ngini = 0.19\nsamples = 31\nvalue = [1, 43, 4]\nclass = Middle Value", fillcolor="#50e88f"] ;
8 -> 10 ;
11 [label="TEMP_Mean-8 <= 0.07\ngini = 0.05\nsamples = 26\nvalue = [1, 41, 0]\nclass = Middle Value", fillcolor="#3ee684"] ;
10 -> 11 ;
12 [label="gini = 0.0\nsamples = 1\nvalue = [1, 0, 0]\nclass = Not stressed", fillcolor="#e58139"] ;
11 -> 12 ;
13 [label="gini = 0.0\nsamples = 25\nvalue = [0, 41, 0]\nclass = Middle Value", fillcolor="#39e581"] ;
11 -> 13 ;
14 [label="HRR_Mean-6 <= 0.11\ngini = 0.44\nsamples = 5\nvalue = [0, 2, 4]\nclass = Stressed", fillcolor="#c09cf2"] ;
10 -> 14 ;
15 [label="gini = 0.0\nsamples = 3\nvalue = [0, 0, 4]\nclass = Stressed", fillcolor="#8139e5"] ;
14 -> 15 ;
16 [label="gini = 0.0\nsamples = 2\nvalue = [0, 2, 0]\nclass = Middle Value", fillcolor="#39e581"] ;
14 -> 16 ;
17 [label="gini = 0.0\nsamples = 1\nvalue = [0, 0, 2]\nclass = Stressed", fillcolor="#8139e5"] ;
7 -> 17 ;
18 [label="EDAR_Mean-5 <= 0.13\ngini = 0.08\nsamples = 15\nvalue = [1, 0, 22]\nclass = Stressed", fillcolor="#8742e6"] ;
6 -> 18 ;
19 [label="gini = 0.0\nsamples = 14\nvalue = [0, 0, 22]\nclass = Stressed", fillcolor="#8139e5"] ;
18 -> 19 ;
20 [label="gini = 0.0\nsamples = 1\nvalue = [1, 0, 0]\nclass = Not stressed", fillcolor="#e58139"] ;
18 -> 20 ;
21 [label="gini = 0.0\nsamples = 12\nvalue = [26, 0, 0]\nclass = Not stressed", fillcolor="#e58139"] ;
5 -> 21 ;
22 [label="EDAR_Max <= 0.21\ngini = 0.04\nsamples = 197\nvalue = [310, 0, 6]\nclass = Not stressed", fillcolor="#e6833d"] ;
4 -> 22 ;
23 [label="EDAR_Mean-7 <= 0.14\ngini = 0.03\nsamples = 196\nvalue = [310, 0, 5]\nclass = Not stressed", fillcolor="#e5833c"] ;
22 -> 23 ;
24 [label="gini = 0.0\nsamples = 180\nvalue = [288, 0, 0]\nclass = Not stressed", fillcolor="#e58139"] ;
23 -> 24 ;
25 [label="HRR_Std <= 0.06\ngini = 0.3\nsamples = 16\nvalue = [22, 0, 5]\nclass = Not stressed", fillcolor="#eb9e66"] ;
23 -> 25 ;
26 [label="HRR_Max <= 0.37\ngini = 0.09\nsamples = 11\nvalue = [21, 0, 1]\nclass = Not stressed", fillcolor="#e68742"] ;
25 -> 26 ;
27 [label="gini = 0.0\nsamples = 1\nvalue = [0, 0, 1]\nclass = Stressed", fillcolor="#8139e5"] ;
26 -> 27 ;
28 [label="gini = 0.0\nsamples = 10\nvalue = [21, 0, 0]\nclass = Not stressed", fillcolor="#e58139"] ;
26 -> 28 ;
29 [label="TEMP_Mean-6 <= 0.16\ngini = 0.32\nsamples = 5\nvalue = [1, 0, 4]\nclass = Stressed", fillcolor="#a06aec"] ;
25 -> 29 ;
30 [label="gini = 0.0\nsamples = 4\nvalue = [0, 0, 4]\nclass = Stressed", fillcolor="#8139e5"] ;
29 -> 30 ;
31 [label="gini = 0.0\nsamples = 1\nvalue = [1, 0, 0]\nclass = Not stressed", fillcolor="#e58139"] ;
29 -> 31 ;
32 [label="gini = 0.0\nsamples = 1\nvalue = [0, 0, 1]\nclass = Stressed", fillcolor="#8139e5"] ;
22 -> 32 ;
33 [label="TEMP_Mean-7 <= 0.22\ngini = 0.6\nsamples = 2096\nvalue = [1751, 558, 989]\nclass = Not stressed", fillcolor="#f6d5be"] ;
1 -> 33 ;
34 [label="HRR_Mean <= 0.66\ngini = 0.57\nsamples = 1787\nvalue = [1610, 437, 761]\nclass = Not stressed", fillcolor="#f4cbad"] ;
33 -> 34 ;
35 [label="TEMPR_Max <= 0.65\ngini = 0.65\nsamples = 1089\nvalue = [672, 411, 648]\nclass = Not stressed", fillcolor="#fefcfb"] ;
34 -> 35 ;
36 [label="TEMPR_Mean <= 0.28\ngini = 0.65\nsamples = 972\nvalue = [490, 411, 646]\nclass = Stressed", fillcolor="#ece2fb"] ;
35 -> 36 ;
37 [label="HRR_Mean-1 <= 0.16\ngini = 0.56\nsamples = 256\nvalue = [79, 241, 81]\nclass = Middle Value", fillcolor="#9cf2c0"] ;
36 -> 37 ;
38 [label="HRR_Max <= 0.38\ngini = 0.45\nsamples = 189\nvalue = [53, 208, 31]\nclass = Middle Value", fillcolor="#7feead"] ;
37 -> 38 ;
39 [label="gini = 0.0\nsamples = 8\nvalue = [12, 0, 0]\nclass = Not stressed", fillcolor="#e58139"] ;
38 -> 39 ;
40 [label="TEMP_Mean-5 <= 0.09\ngini = 0.41\nsamples = 181\nvalue = [41, 208, 31]\nclass = Middle Value", fillcolor="#75eda7"] ;
38 -> 40 ;
41 [label="HRR_Mean-10 <= 0.15\ngini = 0.41\nsamples = 5\nvalue = [2, 0, 5]\nclass = Stressed", fillcolor="#b388ef"] ;
40 -> 41 ;
42 [label="gini = 0.0\nsamples = 3\nvalue = [0, 0, 5]\nclass = Stressed", fillcolor="#8139e5"] ;
41 -> 42 ;
43 [label="gini = 0.0\nsamples = 2\nvalue = [2, 0, 0]\nclass = Not stressed", fillcolor="#e58139"] ;
41 -> 43 ;
44 [label="TEMPR_Mean <= 0.14\ngini = 0.39\nsamples = 176\nvalue = [39, 208, 26]\nclass = Middle Value", fillcolor="#70eca4"] ;
40 -> 44 ;
45 [label="TEMP_Mean-4 <= 0.1\ngini = 0.12\nsamples = 46\nvalue = [0, 71, 5]\nclass = Middle Value", fillcolor="#47e78a"] ;
44 -> 45 ;
46 [label="EDAR_Min <= 0.13\ngini = 0.48\nsamples = 6\nvalue = [0, 6, 4]\nclass = Middle Value", fillcolor="#bdf6d5"] ;
45 -> 46 ;
47 [label="gini = 0.0\nsamples = 4\nvalue = [0, 6, 0]\nclass = Middle Value", fillcolor="#39e581"] ;
46 -> 47 ;
48 [label="gini = 0.0\nsamples = 2\nvalue = [0, 0, 4]\nclass = Stressed", fillcolor="#8139e5"] ;
46 -> 48 ;
49 [label="HRR_Mean-8 <= 0.12\ngini = 0.03\nsamples = 40\nvalue = [0, 65, 1]\nclass = Middle Value", fillcolor="#3ce583"] ;
45 -> 49 ;
50 [label="TEMPR_Max <= 0.12\ngini = 0.44\nsamples = 2\nvalue = [0, 2, 1]\nclass = Middle Value", fillcolor="#9cf2c0"] ;
49 -> 50 ;
51 [label="gini = 0.0\nsamples = 1\nvalue = [0, 2, 0]\nclass = Middle Value", fillcolor="#39e581"] ;
50 -> 51 ;
52 [label="gini = 0.0\nsamples = 1\nvalue = [0, 0, 1]\nclass = Stressed", fillcolor="#8139e5"] ;
50 -> 52 ;
53 [label="gini = 0.0\nsamples = 38\nvalue = [0, 63, 0]\nclass = Middle Value", fillcolor="#39e581"] ;
49 -> 53 ;
54 [label="EDAR_Mean <= 0.14\ngini = 0.47\nsamples = 130\nvalue = [39, 137, 21]\nclass = Middle Value", fillcolor="#84efb1"] ;
44 -> 54 ;
55 [label="EDAR_Mean-8 <= 0.18\ngini = 0.26\nsamples = 80\nvalue = [6, 106, 12]\nclass = Middle Value", fillcolor="#59e995"] ;
54 -> 55 ;
56 [label="EDAR_Mean-6 <= 0.09\ngini = 0.22\nsamples = 78\nvalue = [3, 106, 12]\nclass = Middle Value", fillcolor="#54e992"] ;
55 -> 56 ;
57 [label="TEMP_Mean-5 <= 0.11\ngini = 0.49\nsamples = 6\nvalue = [0, 4, 5]\nclass = Stressed", fillcolor="#e6d7fa"] ;
56 -> 57 ;
58 [label="gini = 0.0\nsamples = 3\nvalue = [0, 4, 0]\nclass = Middle Value", fillcolor="#39e581"] ;
57 -> 58 ;
59 [label="gini = 0.0\nsamples = 3\nvalue = [0, 0, 5]\nclass = Stressed", fillcolor="#8139e5"] ;
57 -> 59 ;
60 [label="HRR_Max <= 0.57\ngini = 0.17\nsamples = 72\nvalue = [3, 102, 7]\nclass = Middle Value", fillcolor="#4ce78d"] ;
56 -> 60 ;
61 [label="TEMPR_Min <= 0.15\ngini = 0.47\nsamples = 13\nvalue = [0, 12, 7]\nclass = Middle Value", fillcolor="#acf4ca"] ;
60 -> 61 ;
62 [label="TEMP_Mean-9 <= 0.13\ngini = 0.42\nsamples = 6\nvalue = [0, 3, 7]\nclass = Stressed", fillcolor="#b78ef0"] ;
61 -> 62 ;
63 [label="gini = 0.0\nsamples = 3\nvalue = [0, 0, 6]\nclass = Stressed", fillcolor="#8139e5"] ;
62 -> 63 ;
64 [label="EDAR_Mean-8 <= 0.13\ngini = 0.38\nsamples = 3\nvalue = [0, 3, 1]\nclass = Middle Value", fillcolor="#7beeab"] ;
62 -> 64 ;
65 [label="gini = 0.0\nsamples = 1\nvalue = [0, 0, 1]\nclass = Stressed", fillcolor="#8139e5"] ;
64 -> 65 ;
66 [label="gini = 0.0\nsamples = 2\nvalue = [0, 3, 0]\nclass = Middle Value", fillcolor="#39e581"] ;
64 -> 66 ;
67 [label="gini = 0.0\nsamples = 7\nvalue = [0, 9, 0]\nclass = Middle Value", fillcolor="#39e581"] ;
61 -> 67 ;
68 [label="EDAR_Mean <= 0.13\ngini = 0.06\nsamples = 59\nvalue = [3, 90, 0]\nclass = Middle Value", fillcolor="#40e685"] ;
60 -> 68 ;
69 [label="gini = 0.0\nsamples = 55\nvalue = [0, 85, 0]\nclass = Middle Value", fillcolor="#39e581"] ;
68 -> 69 ;
70 [label="EDAR_Min <= 0.13\ngini = 0.47\nsamples = 4\nvalue = [3, 5, 0]\nclass = Middle Value", fillcolor="#b0f5cd"] ;
68 -> 70 ;
71 [label="gini = 0.0\nsamples = 2\nvalue = [0, 5, 0]\nclass = Middle Value", fillcolor="#39e581"] ;
70 -> 71 ;
72 [label="gini = 0.0\nsamples = 2\nvalue = [3, 0, 0]\nclass = Not stressed", fillcolor="#e58139"] ;
70 -> 72 ;
73 [label="gini = 0.0\nsamples = 2\nvalue = [3, 0, 0]\nclass = Not stressed", fillcolor="#e58139"] ;
55 -> 73 ;
74 [label="HRR_Mean-4 <= 0.11\ngini = 0.6\nsamples = 50\nvalue = [33, 31, 9]\nclass = Not stressed", fillcolor="#fef9f6"] ;
54 -> 74 ;
75 [label="EDAR_Mean-6 <= 0.14\ngini = 0.46\nsamples = 8\nvalue = [13, 1, 5]\nclass = Not stressed", fillcolor="#f0b78e"] ;
74 -> 75 ;
76 [label="gini = 0.0\nsamples = 4\nvalue = [13, 0, 0]\nclass = Not stressed", fillcolor="#e58139"] ;
75 -> 76 ;
77 [label="EDAR_Mean-9 <= 0.16\ngini = 0.28\nsamples = 4\nvalue = [0, 1, 5]\nclass = Stressed", fillcolor="#9a61ea"] ;
75 -> 77 ;
78 [label="gini = 0.0\nsamples = 3\nvalue = [0, 0, 5]\nclass = Stressed", fillcolor="#8139e5"] ;
77 -> 78 ;
79 [label="gini = 0.0\nsamples = 1\nvalue = [0, 1, 0]\nclass = Middle Value", fillcolor="#39e581"] ;
77 -> 79 ;
80 [label="HRR_Mean-1 <= 0.13\ngini = 0.55\nsamples = 42\nvalue = [20, 30, 4]\nclass = Middle Value", fillcolor="#c5f7da"] ;
74 -> 80 ;
81 [label="HRR_Mean-5 <= 0.12\ngini = 0.2\nsamples = 20\nvalue = [3, 24, 0]\nclass = Middle Value", fillcolor="#52e891"] ;
80 -> 81 ;
82 [label="TEMPR_Min <= 0.19\ngini = 0.49\nsamples = 6\nvalue = [3, 4, 0]\nclass = Middle Value", fillcolor="#cef8e0"] ;
81 -> 82 ;
83 [label="gini = 0.0\nsamples = 3\nvalue = [3, 0, 0]\nclass = Not stressed", fillcolor="#e58139"] ;
82 -> 83 ;
84 [label="gini = 0.0\nsamples = 3\nvalue = [0, 4, 0]\nclass = Middle Value", fillcolor="#39e581"] ;
82 -> 84 ;
85 [label="gini = 0.0\nsamples = 14\nvalue = [0, 20, 0]\nclass = Middle Value", fillcolor="#39e581"] ;
81 -> 85 ;
86 [label="TEMPR_Max <= 0.18\ngini = 0.53\nsamples = 22\nvalue = [17, 6, 4]\nclass = Not stressed", fillcolor="#f1bd97"] ;
80 -> 86 ;
87 [label="TEMP_Mean-4 <= 0.13\ngini = 0.19\nsamples = 15\nvalue = [17, 2, 0]\nclass = Not stressed", fillcolor="#e89050"] ;
86 -> 87 ;
88 [label="gini = 0.0\nsamples = 2\nvalue = [0, 2, 0]\nclass = Middle Value", fillcolor="#39e581"] ;
87 -> 88 ;
89 [label="gini = 0.0\nsamples = 13\nvalue = [17, 0, 0]\nclass = Not stressed", fillcolor="#e58139"] ;
87 -> 89 ;
90 [label="TEMP_Mean-5 <= 0.16\ngini = 0.5\nsamples = 7\nvalue = [0, 4, 4]\nclass = Middle Value", fillcolor="#ffffff"] ;
86 -> 90 ;
91 [label="gini = 0.0\nsamples = 3\nvalue = [0, 4, 0]\nclass = Middle Value", fillcolor="#39e581"] ;
90 -> 91 ;
92 [label="gini = 0.0\nsamples = 4\nvalue = [0, 0, 4]\nclass = Stressed", fillcolor="#8139e5"] ;
90 -> 92 ;
93 [label="EDAR_Mean <= 0.12\ngini = 0.64\nsamples = 67\nvalue = [26, 33, 50]\nclass = Stressed", fillcolor="#e3d3f9"] ;
37 -> 93 ;
94 [label="EDAR_Mean <= 0.07\ngini = 0.49\nsamples = 25\nvalue = [16, 21, 0]\nclass = Middle Value", fillcolor="#d0f9e1"] ;
93 -> 94 ;
95 [label="gini = 0.0\nsamples = 12\nvalue = [16, 0, 0]\nclass = Not stressed", fillcolor="#e58139"] ;
94 -> 95 ;
96 [label="gini = 0.0\nsamples = 13\nvalue = [0, 21, 0]\nclass = Middle Value", fillcolor="#39e581"] ;
94 -> 96 ;
97 [label="TEMP_Mean-6 <= 0.14\ngini = 0.47\nsamples = 42\nvalue = [10, 12, 50]\nclass = Stressed", fillcolor="#af82ef"] ;
93 -> 97 ;
98 [label="gini = 0.0\nsamples = 3\nvalue = [0, 6, 0]\nclass = Middle Value", fillcolor="#39e581"] ;
97 -> 98 ;
99 [label="EDAR_Mean-9 <= 0.17\ngini = 0.39\nsamples = 39\nvalue = [10, 6, 50]\nclass = Stressed", fillcolor="#a572ec"] ;
97 -> 99 ;
100 [label="gini = 0.0\nsamples = 17\nvalue = [0, 0, 32]\nclass = Stressed", fillcolor="#8139e5"] ;
99 -> 100 ;
101 [label="HRR_Min <= 0.24\ngini = 0.6\nsamples = 22\nvalue = [10, 6, 18]\nclass = Stressed", fillcolor="#d5bdf6"] ;
99 -> 101 ;
102 [label="gini = 0.0\nsamples = 7\nvalue = [10, 0, 0]\nclass = Not stressed", fillcolor="#e58139"] ;
101 -> 102 ;
103 [label="EDAR_Mean-10 <= 0.2\ngini = 0.38\nsamples = 15\nvalue = [0, 6, 18]\nclass = Stressed", fillcolor="#ab7bee"] ;
101 -> 103 ;
104 [label="gini = 0.0\nsamples = 9\nvalue = [0, 0, 15]\nclass = Stressed", fillcolor="#8139e5"] ;
103 -> 104 ;
105 [label="HRR_Mean-5 <= 0.22\ngini = 0.44\nsamples = 6\nvalue = [0, 6, 3]\nclass = Middle Value", fillcolor="#9cf2c0"] ;
103 -> 105 ;
106 [label="gini = 0.0\nsamples = 4\nvalue = [0, 6, 0]\nclass = Middle Value", fillcolor="#39e581"] ;
105 -> 106 ;
107 [label="gini = 0.0\nsamples = 2\nvalue = [0, 0, 3]\nclass = Stressed", fillcolor="#8139e5"] ;
105 -> 107 ;
108 [label="EDAR_Mean <= 0.11\ngini = 0.61\nsamples = 716\nvalue = [411, 170, 565]\nclass = Stressed", fillcolor="#e5d6fa"] ;
36 -> 108 ;
109 [label="EDAR_Mean-5 <= 0.09\ngini = 0.47\nsamples = 139\nvalue = [160, 21, 53]\nclass = Not stressed", fillcolor="#f0b58a"] ;
108 -> 109 ;
110 [label="TEMPR_Max <= 0.37\ngini = 0.07\nsamples = 32\nvalue = [54, 1, 1]\nclass = Not stressed", fillcolor="#e68640"] ;
109 -> 110 ;
111 [label="TEMP_Mean-6 <= 0.13\ngini = 0.56\nsamples = 5\nvalue = [3, 1, 1]\nclass = Not stressed", fillcolor="#f2c09c"] ;
110 -> 111 ;
112 [label="EDAR_Mean-3 <= 0.08\ngini = 0.5\nsamples = 2\nvalue = [0, 1, 1]\nclass = Middle Value", fillcolor="#ffffff"] ;
111 -> 112 ;
113 [label="gini = 0.0\nsamples = 1\nvalue = [0, 1, 0]\nclass = Middle Value", fillcolor="#39e581"] ;
112 -> 113 ;
114 [label="gini = 0.0\nsamples = 1\nvalue = [0, 0, 1]\nclass = Stressed", fillcolor="#8139e5"] ;
112 -> 114 ;
115 [label="gini = 0.0\nsamples = 3\nvalue = [3, 0, 0]\nclass = Not stressed", fillcolor="#e58139"] ;
111 -> 115 ;
116 [label="gini = 0.0\nsamples = 27\nvalue = [51, 0, 0]\nclass = Not stressed", fillcolor="#e58139"] ;
110 -> 116 ;
117 [label="HRR_Mean-4 <= 0.17\ngini = 0.55\nsamples = 107\nvalue = [106, 20, 52]\nclass = Not stressed", fillcolor="#f4c9aa"] ;
109 -> 117 ;
118 [label="HRR_Mean <= 0.23\ngini = 0.58\nsamples = 94\nvalue = [83, 20, 51]\nclass = Not stressed", fillcolor="#f7d8c1"] ;
117 -> 118 ;
119 [label="HRR_RMS <= 0.11\ngini = 0.18\nsamples = 32\nvalue = [46, 0, 5]\nclass = Not stressed", fillcolor="#e88f4f"] ;
118 -> 119 ;
120 [label="EDAR_Mean-10 <= 0.12\ngini = 0.5\nsamples = 5\nvalue = [3, 0, 3]\nclass = Not stressed", fillcolor="#ffffff"] ;
119 -> 120 ;
121 [label="gini = 0.0\nsamples = 3\nvalue = [3, 0, 0]\nclass = Not stressed", fillcolor="#e58139"] ;
120 -> 121 ;
122 [label="gini = 0.0\nsamples = 2\nvalue = [0, 0, 3]\nclass = Stressed", fillcolor="#8139e5"] ;
120 -> 122 ;
123 [label="TEMP_Mean-2 <= 0.13\ngini = 0.08\nsamples = 27\nvalue = [43, 0, 2]\nclass = Not stressed", fillcolor="#e68742"] ;
119 -> 123 ;
124 [label="gini = 0.0\nsamples = 22\nvalue = [35, 0, 0]\nclass = Not stressed", fillcolor="#e58139"] ;
123 -> 124 ;
125 [label="EDAR_Std <= 0.02\ngini = 0.32\nsamples = 5\nvalue = [8, 0, 2]\nclass = Not stressed", fillcolor="#eca06a"] ;
123 -> 125 ;
126 [label="gini = 0.0\nsamples = 1\nvalue = [0, 0, 2]\nclass = Stressed", fillcolor="#8139e5"] ;
125 -> 126 ;
127 [label="gini = 0.0\nsamples = 4\nvalue = [8, 0, 0]\nclass = Not stressed", fillcolor="#e58139"] ;
125 -> 127 ;
128 [label="HRR_Mean-4 <= 0.13\ngini = 0.63\nsamples = 62\nvalue = [37, 20, 46]\nclass = Stressed", fillcolor="#eee4fb"] ;
118 -> 128 ;
129 [label="HRR_Mean-1 <= 0.12\ngini = 0.58\nsamples = 30\nvalue = [31, 8, 17]\nclass = Not stressed", fillcolor="#f6d2b8"] ;
128 -> 129 ;
130 [label="HRR_Max <= 0.28\ngini = 0.64\nsamples = 21\nvalue = [15, 8, 17]\nclass = Stressed", fillcolor="#f5effd"] ;
129 -> 130 ;
131 [label="gini = 0.0\nsamples = 6\nvalue = [11, 0, 0]\nclass = Not stressed", fillcolor="#e58139"] ;
130 -> 131 ;
132 [label="TEMP_Mean-4 <= 0.1\ngini = 0.56\nsamples = 15\nvalue = [4, 8, 17]\nclass = Stressed", fillcolor="#c9aaf4"] ;
130 -> 132 ;
133 [label="gini = 0.0\nsamples = 3\nvalue = [0, 8, 0]\nclass = Middle Value", fillcolor="#39e581"] ;
132 -> 133 ;
134 [label="HRR_Mean <= 0.51\ngini = 0.31\nsamples = 12\nvalue = [4, 0, 17]\nclass = Stressed", fillcolor="#9f68eb"] ;
132 -> 134 ;
135 [label="gini = 0.0\nsamples = 9\nvalue = [0, 0, 17]\nclass = Stressed", fillcolor="#8139e5"] ;
134 -> 135 ;
136 [label="gini = 0.0\nsamples = 3\nvalue = [4, 0, 0]\nclass = Not stressed", fillcolor="#e58139"] ;
134 -> 136 ;
137 [label="gini = 0.0\nsamples = 9\nvalue = [16, 0, 0]\nclass = Not stressed", fillcolor="#e58139"] ;
129 -> 137 ;
138 [label="HRR_Mean-9 <= 0.13\ngini = 0.54\nsamples = 32\nvalue = [6, 12, 29]\nclass = Stressed", fillcolor="#c29ff2"] ;
128 -> 138 ;
139 [label="EDAR_Mean-8 <= 0.1\ngini = 0.4\nsamples = 7\nvalue = [3, 8, 0]\nclass = Middle Value", fillcolor="#83efb0"] ;
138 -> 139 ;
140 [label="gini = 0.0\nsamples = 1\nvalue = [3, 0, 0]\nclass = Not stressed", fillcolor="#e58139"] ;
139 -> 140 ;
141 [label="gini = 0.0\nsamples = 6\nvalue = [0, 8, 0]\nclass = Middle Value", fillcolor="#39e581"] ;
139 -> 141 ;
142 [label="HRR_Max <= 0.32\ngini = 0.33\nsamples = 25\nvalue = [3, 4, 29]\nclass = Stressed", fillcolor="#9d64eb"] ;
138 -> 142 ;
143 [label="gini = 0.0\nsamples = 17\nvalue = [0, 0, 26]\nclass = Stressed", fillcolor="#8139e5"] ;
142 -> 143 ;
144 [label="HRR_Mean-4 <= 0.14\ngini = 0.66\nsamples = 8\nvalue = [3, 4, 3]\nclass = Middle Value", fillcolor="#e3fbed"] ;
142 -> 144 ;
145 [label="gini = 0.0\nsamples = 3\nvalue = [0, 4, 0]\nclass = Middle Value", fillcolor="#39e581"] ;
144 -> 145 ;
146 [label="HRR_Mean-9 <= 0.18\ngini = 0.5\nsamples = 5\nvalue = [3, 0, 3]\nclass = Not stressed", fillcolor="#ffffff"] ;
144 -> 146 ;
147 [label="gini = 0.0\nsamples = 3\nvalue = [3, 0, 0]\nclass = Not stressed", fillcolor="#e58139"] ;
146 -> 147 ;
148 [label="gini = 0.0\nsamples = 2\nvalue = [0, 0, 3]\nclass = Stressed", fillcolor="#8139e5"] ;
146 -> 148 ;
149 [label="EDAR_Max <= 0.11\ngini = 0.08\nsamples = 13\nvalue = [23, 0, 1]\nclass = Not stressed", fillcolor="#e68642"] ;
117 -> 149 ;
150 [label="gini = 0.0\nsamples = 10\nvalue = [19, 0, 0]\nclass = Not stressed", fillcolor="#e58139"] ;
149 -> 150 ;
151 [label="EDAR_Mean-7 <= 0.14\ngini = 0.32\nsamples = 3\nvalue = [4, 0, 1]\nclass = Not stressed", fillcolor="#eca06a"] ;
149 -> 151 ;
152 [label="gini = 0.0\nsamples = 1\nvalue = [0, 0, 1]\nclass = Stressed", fillcolor="#8139e5"] ;
151 -> 152 ;
153 [label="gini = 0.0\nsamples = 2\nvalue = [4, 0, 0]\nclass = Not stressed", fillcolor="#e58139"] ;
151 -> 153 ;
154 [label="EDAR_Max <= 0.14\ngini = 0.58\nsamples = 577\nvalue = [251, 149, 512]\nclass = Stressed", fillcolor="#cdb1f5"] ;
108 -> 154 ;
155 [label="HRR_Max <= 0.18\ngini = 0.46\nsamples = 203\nvalue = [58, 42, 235]\nclass = Stressed", fillcolor="#ae80ee"] ;
154 -> 155 ;
156 [label="gini = 0.0\nsamples = 19\nvalue = [29, 0, 0]\nclass = Not stressed", fillcolor="#e58139"] ;
155 -> 156 ;
157 [label="TEMP_Mean-10 <= 0.11\ngini = 0.38\nsamples = 184\nvalue = [29, 42, 235]\nclass = Stressed", fillcolor="#a36eec"] ;
155 -> 157 ;
158 [label="TEMPR_Min <= 0.5\ngini = 0.28\nsamples = 6\nvalue = [10, 0, 2]\nclass = Not stressed", fillcolor="#ea9a61"] ;
157 -> 158 ;
159 [label="gini = 0.0\nsamples = 1\nvalue = [0, 0, 2]\nclass = Stressed", fillcolor="#8139e5"] ;
158 -> 159 ;
160 [label="gini = 0.0\nsamples = 5\nvalue = [10, 0, 0]\nclass = Not stressed", fillcolor="#e58139"] ;
158 -> 160 ;
161 [label="TEMPR_Min <= 0.56\ngini = 0.35\nsamples = 178\nvalue = [19, 42, 233]\nclass = Stressed", fillcolor="#a069eb"] ;
157 -> 161 ;
162 [label="EDAR_Mean-7 <= 0.16\ngini = 0.13\nsamples = 135\nvalue = [0, 16, 209]\nclass = Stressed", fillcolor="#8b48e7"] ;
161 -> 162 ;
163 [label="HRR_Max <= 0.37\ngini = 0.1\nsamples = 129\nvalue = [0, 11, 204]\nclass = Stressed", fillcolor="#8844e6"] ;
162 -> 163 ;
164 [label="HRR_Mean-4 <= 0.17\ngini = 0.07\nsamples = 120\nvalue = [0, 7, 198]\nclass = Stressed", fillcolor="#8540e6"] ;
163 -> 164 ;
165 [label="EDAR_Std <= 0.07\ngini = 0.02\nsamples = 99\nvalue = [0, 2, 168]\nclass = Stressed", fillcolor="#823be5"] ;
164 -> 165 ;
166 [label="gini = 0.0\nsamples = 94\nvalue = [0, 0, 162]\nclass = Stressed", fillcolor="#8139e5"] ;
165 -> 166 ;
167 [label="TEMP_Mean-6 <= 0.13\ngini = 0.38\nsamples = 5\nvalue = [0, 2, 6]\nclass = Stressed", fillcolor="#ab7bee"] ;
165 -> 167 ;
168 [label="gini = 0.0\nsamples = 4\nvalue = [0, 0, 6]\nclass = Stressed", fillcolor="#8139e5"] ;
167 -> 168 ;
169 [label="gini = 0.0\nsamples = 1\nvalue = [0, 2, 0]\nclass = Middle Value", fillcolor="#39e581"] ;
167 -> 169 ;
170 [label="HRR_Mean-2 <= 0.18\ngini = 0.24\nsamples = 21\nvalue = [0, 5, 30]\nclass = Stressed", fillcolor="#965ae9"] ;
164 -> 170 ;
171 [label="TEMP_Mean-2 <= 0.14\ngini = 0.5\nsamples = 7\nvalue = [0, 5, 6]\nclass = Stressed", fillcolor="#eadefb"] ;
170 -> 171 ;
172 [label="gini = 0.0\nsamples = 3\nvalue = [0, 0, 5]\nclass = Stressed", fillcolor="#8139e5"] ;
171 -> 172 ;
173 [label="TEMPR_Std <= 0.06\ngini = 0.28\nsamples = 4\nvalue = [0, 5, 1]\nclass = Middle Value", fillcolor="#61ea9a"] ;
171 -> 173 ;
174 [label="gini = 0.0\nsamples = 3\nvalue = [0, 5, 0]\nclass = Middle Value", fillcolor="#39e581"] ;
173 -> 174 ;
175 [label="gini = 0.0\nsamples = 1\nvalue = [0, 0, 1]\nclass = Stressed", fillcolor="#8139e5"] ;
173 -> 175 ;
176 [label="gini = 0.0\nsamples = 14\nvalue = [0, 0, 24]\nclass = Stressed", fillcolor="#8139e5"] ;
170 -> 176 ;
177 [label="HRR_Mean <= 0.43\ngini = 0.48\nsamples = 9\nvalue = [0, 4, 6]\nclass = Stressed", fillcolor="#d5bdf6"] ;
163 -> 177 ;
178 [label="gini = 0.0\nsamples = 4\nvalue = [0, 4, 0]\nclass = Middle Value", fillcolor="#39e581"] ;
177 -> 178 ;
179 [label="gini = 0.0\nsamples = 5\nvalue = [0, 0, 6]\nclass = Stressed", fillcolor="#8139e5"] ;
177 -> 179 ;
180 [label="EDAR_Mean-7 <= 0.19\ngini = 0.5\nsamples = 6\nvalue = [0, 5, 5]\nclass = Middle Value", fillcolor="#ffffff"] ;
162 -> 180 ;
181 [label="EDAR_Amphitude <= 0.01\ngini = 0.28\nsamples = 4\nvalue = [0, 5, 1]\nclass = Middle Value", fillcolor="#61ea9a"] ;
180 -> 181 ;
182 [label="gini = 0.0\nsamples = 3\nvalue = [0, 5, 0]\nclass = Middle Value", fillcolor="#39e581"] ;
181 -> 182 ;
183 [label="gini = 0.0\nsamples = 1\nvalue = [0, 0, 1]\nclass = Stressed", fillcolor="#8139e5"] ;
181 -> 183 ;
184 [label="gini = 0.0\nsamples = 2\nvalue = [0, 0, 4]\nclass = Stressed", fillcolor="#8139e5"] ;
180 -> 184 ;
185 [label="TEMP_Mean-5 <= 0.16\ngini = 0.66\nsamples = 43\nvalue = [19, 26, 24]\nclass = Middle Value", fillcolor="#f6fef9"] ;
161 -> 185 ;
186 [label="TEMPR_Min <= 0.57\ngini = 0.65\nsamples = 36\nvalue = [17, 14, 24]\nclass = Stressed", fillcolor="#e8dbfa"] ;
185 -> 186 ;
187 [label="EDAR_Mean <= 0.13\ngini = 0.47\nsamples = 11\nvalue = [0, 13, 8]\nclass = Middle Value", fillcolor="#b3f5cf"] ;
186 -> 187 ;
188 [label="TEMPR_Mean <= 0.56\ngini = 0.2\nsamples = 5\nvalue = [0, 1, 8]\nclass = Stressed", fillcolor="#9152e8"] ;
187 -> 188 ;
189 [label="gini = 0.0\nsamples = 1\nvalue = [0, 1, 0]\nclass = Middle Value", fillcolor="#39e581"] ;
188 -> 189 ;
190 [label="gini = 0.0\nsamples = 4\nvalue = [0, 0, 8]\nclass = Stressed", fillcolor="#8139e5"] ;
188 -> 190 ;
191 [label="gini = 0.0\nsamples = 6\nvalue = [0, 12, 0]\nclass = Middle Value", fillcolor="#39e581"] ;
187 -> 191 ;
192 [label="EDAR_Max <= 0.13\ngini = 0.53\nsamples = 25\nvalue = [17, 1, 16]\nclass = Not stressed", fillcolor="#fef8f4"] ;
186 -> 192 ;
193 [label="gini = 0.0\nsamples = 7\nvalue = [11, 0, 0]\nclass = Not stressed", fillcolor="#e58139"] ;
192 -> 193 ;
194 [label="HRR_Mean-1 <= 0.15\ngini = 0.45\nsamples = 18\nvalue = [6, 1, 16]\nclass = Stressed", fillcolor="#b58bf0"] ;
192 -> 194 ;
195 [label="HRR_Mean-7 <= 0.16\ngini = 0.12\nsamples = 13\nvalue = [1, 0, 15]\nclass = Stressed", fillcolor="#8946e7"] ;
194 -> 195 ;
196 [label="gini = 0.0\nsamples = 12\nvalue = [0, 0, 15]\nclass = Stressed", fillcolor="#8139e5"] ;
195 -> 196 ;
197 [label="gini = 0.0\nsamples = 1\nvalue = [1, 0, 0]\nclass = Not stressed", fillcolor="#e58139"] ;
195 -> 197 ;
198 [label="HRR_Mean-8 <= 0.15\ngini = 0.45\nsamples = 5\nvalue = [5, 1, 1]\nclass = Not stressed", fillcolor="#eeab7b"] ;
194 -> 198 ;
199 [label="gini = 0.0\nsamples = 3\nvalue = [5, 0, 0]\nclass = Not stressed", fillcolor="#e58139"] ;
198 -> 199 ;
200 [label="TEMP_Mean-8 <= 0.16\ngini = 0.5\nsamples = 2\nvalue = [0, 1, 1]\nclass = Middle Value", fillcolor="#ffffff"] ;
198 -> 200 ;
201 [label="gini = 0.0\nsamples = 1\nvalue = [0, 0, 1]\nclass = Stressed", fillcolor="#8139e5"] ;
200 -> 201 ;
202 [label="gini = 0.0\nsamples = 1\nvalue = [0, 1, 0]\nclass = Middle Value", fillcolor="#39e581"] ;
200 -> 202 ;
203 [label="HRR_Mean-9 <= 0.14\ngini = 0.24\nsamples = 7\nvalue = [2, 12, 0]\nclass = Middle Value", fillcolor="#5ae996"] ;
185 -> 203 ;
204 [label="gini = 0.0\nsamples = 1\nvalue = [2, 0, 0]\nclass = Not stressed", fillcolor="#e58139"] ;
203 -> 204 ;
205 [label="gini = 0.0\nsamples = 6\nvalue = [0, 12, 0]\nclass = Middle Value", fillcolor="#39e581"] ;
203 -> 205 ;
206 [label="TEMP_Mean-1 <= 0.17\ngini = 0.62\nsamples = 374\nvalue = [193, 107, 277]\nclass = Stressed", fillcolor="#e3d4f9"] ;
154 -> 206 ;
207 [label="HRR_Max <= 0.18\ngini = 0.66\nsamples = 218\nvalue = [127, 88, 125]\nclass = Not stressed", fillcolor="#fffefd"] ;
206 -> 207 ;
208 [label="gini = 0.0\nsamples = 17\nvalue = [27, 0, 0]\nclass = Not stressed", fillcolor="#e58139"] ;
207 -> 208 ;
209 [label="TEMPR_Min <= 0.62\ngini = 0.66\nsamples = 201\nvalue = [100, 88, 125]\nclass = Stressed", fillcolor="#f0e8fc"] ;
207 -> 209 ;
210 [label="TEMP_Mean-1 <= 0.12\ngini = 0.63\nsamples = 167\nvalue = [96, 49, 113]\nclass = Stressed", fillcolor="#f2eafc"] ;
209 -> 210 ;
211 [label="HRR_Min <= 0.33\ngini = 0.43\nsamples = 43\nvalue = [9, 8, 47]\nclass = Stressed", fillcolor="#a876ed"] ;
210 -> 211 ;
212 [label="EDAR_Mean-3 <= 0.15\ngini = 0.2\nsamples = 36\nvalue = [0, 6, 47]\nclass = Stressed", fillcolor="#9152e8"] ;
211 -> 212 ;
213 [label="TEMP_Mean-1 <= 0.12\ngini = 0.08\nsamples = 32\nvalue = [0, 2, 45]\nclass = Stressed", fillcolor="#8742e6"] ;
212 -> 213 ;
214 [label="TEMPR_Max <= 0.54\ngini = 0.04\nsamples = 30\nvalue = [0, 1, 44]\nclass = Stressed", fillcolor="#843de6"] ;
213 -> 214 ;
215 [label="gini = 0.0\nsamples = 24\nvalue = [0, 0, 36]\nclass = Stressed", fillcolor="#8139e5"] ;
214 -> 215 ;
216 [label="HRR_Mean-1 <= 0.13\ngini = 0.2\nsamples = 6\nvalue = [0, 1, 8]\nclass = Stressed", fillcolor="#9152e8"] ;
214 -> 216 ;
217 [label="gini = 0.0\nsamples = 5\nvalue = [0, 0, 8]\nclass = Stressed", fillcolor="#8139e5"] ;
216 -> 217 ;
218 [label="gini = 0.0\nsamples = 1\nvalue = [0, 1, 0]\nclass = Middle Value", fillcolor="#39e581"] ;
216 -> 218 ;
219 [label="HRR_Mean-2 <= 0.15\ngini = 0.5\nsamples = 2\nvalue = [0, 1, 1]\nclass = Middle Value", fillcolor="#ffffff"] ;
213 -> 219 ;
220 [label="gini = 0.0\nsamples = 1\nvalue = [0, 0, 1]\nclass = Stressed", fillcolor="#8139e5"] ;
219 -> 220 ;
221 [label="gini = 0.0\nsamples = 1\nvalue = [0, 1, 0]\nclass = Middle Value", fillcolor="#39e581"] ;
219 -> 221 ;
222 [label="HRR_Mean-7 <= 0.15\ngini = 0.44\nsamples = 4\nvalue = [0, 4, 2]\nclass = Middle Value", fillcolor="#9cf2c0"] ;
212 -> 222 ;
223 [label="gini = 0.0\nsamples = 2\nvalue = [0, 4, 0]\nclass = Middle Value", fillcolor="#39e581"] ;
222 -> 223 ;
224 [label="gini = 0.0\nsamples = 2\nvalue = [0, 0, 2]\nclass = Stressed", fillcolor="#8139e5"] ;
222 -> 224 ;
225 [label="EDAR_Skew <= 0.42\ngini = 0.3\nsamples = 7\nvalue = [9, 2, 0]\nclass = Not stressed", fillcolor="#eb9d65"] ;
211 -> 225 ;
226 [label="gini = 0.0\nsamples = 1\nvalue = [0, 2, 0]\nclass = Middle Value", fillcolor="#39e581"] ;
225 -> 226 ;
227 [label="gini = 0.0\nsamples = 6\nvalue = [9, 0, 0]\nclass = Not stressed", fillcolor="#e58139"] ;
225 -> 227 ;
228 [label="TEMPR_Max <= 0.47\ngini = 0.64\nsamples = 124\nvalue = [87, 41, 66]\nclass = Not stressed", fillcolor="#fbeadf"] ;
210 -> 228 ;
229 [label="EDAR_Min <= 0.16\ngini = 0.46\nsamples = 34\nvalue = [0, 19, 33]\nclass = Stressed", fillcolor="#caabf4"] ;
228 -> 229 ;
230 [label="HRR_Min <= 0.27\ngini = 0.45\nsamples = 20\nvalue = [0, 19, 10]\nclass = Middle Value", fillcolor="#a1f3c3"] ;
229 -> 230 ;
231 [label="gini = 0.0\nsamples = 8\nvalue = [0, 0, 8]\nclass = Stressed", fillcolor="#8139e5"] ;
230 -> 231 ;
232 [label="HRR_Mean-1 <= 0.23\ngini = 0.17\nsamples = 12\nvalue = [0, 19, 2]\nclass = Middle Value", fillcolor="#4ee88e"] ;
230 -> 232 ;
233 [label="gini = 0.0\nsamples = 10\nvalue = [0, 19, 0]\nclass = Middle Value", fillcolor="#39e581"] ;
232 -> 233 ;
234 [label="gini = 0.0\nsamples = 2\nvalue = [0, 0, 2]\nclass = Stressed", fillcolor="#8139e5"] ;
232 -> 234 ;
235 [label="gini = 0.0\nsamples = 14\nvalue = [0, 0, 23]\nclass = Stressed", fillcolor="#8139e5"] ;
229 -> 235 ;
236 [label="EDAR_Skew <= 0.62\ngini = 0.55\nsamples = 90\nvalue = [87, 22, 33]\nclass = Not stressed", fillcolor="#f2c19d"] ;
228 -> 236 ;
237 [label="HRR_Max <= 0.62\ngini = 0.51\nsamples = 76\nvalue = [74, 9, 33]\nclass = Not stressed", fillcolor="#f2c19d"] ;
236 -> 237 ;
238 [label="HRR_Max <= 0.39\ngini = 0.47\nsamples = 68\nvalue = [72, 9, 24]\nclass = Not stressed", fillcolor="#f0b48a"] ;
237 -> 238 ;
239 [label="TEMP_Mean-4 <= 0.14\ngini = 0.58\nsamples = 45\nvalue = [34, 7, 24]\nclass = Not stressed", fillcolor="#f9e0cf"] ;
238 -> 239 ;
240 [label="EDAR_Mean-7 <= 0.14\ngini = 0.51\nsamples = 13\nvalue = [1, 6, 11]\nclass = Stressed", fillcolor="#caacf4"] ;
239 -> 240 ;
241 [label="TEMP_Mean-2 <= 0.13\ngini = 0.38\nsamples = 5\nvalue = [0, 6, 2]\nclass = Middle Value", fillcolor="#7beeab"] ;
240 -> 241 ;
242 [label="gini = 0.0\nsamples = 4\nvalue = [0, 6, 0]\nclass = Middle Value", fillcolor="#39e581"] ;
241 -> 242 ;
243 [label="gini = 0.0\nsamples = 1\nvalue = [0, 0, 2]\nclass = Stressed", fillcolor="#8139e5"] ;
241 -> 243 ;
244 [label="TEMP_Mean-2 <= 0.15\ngini = 0.18\nsamples = 8\nvalue = [1, 0, 9]\nclass = Stressed", fillcolor="#8f4fe8"] ;
240 -> 244 ;
245 [label="gini = 0.0\nsamples = 7\nvalue = [0, 0, 9]\nclass = Stressed", fillcolor="#8139e5"] ;
244 -> 245 ;
246 [label="gini = 0.0\nsamples = 1\nvalue = [1, 0, 0]\nclass = Not stressed", fillcolor="#e58139"] ;
244 -> 246 ;
247 [label="EDAR_Max <= 0.15\ngini = 0.43\nsamples = 32\nvalue = [33, 1, 13]\nclass = Not stressed", fillcolor="#f0b58b"] ;
239 -> 247 ;
248 [label="EDAR_Std <= 0.01\ngini = 0.09\nsamples = 12\nvalue = [19, 0, 1]\nclass = Not stressed", fillcolor="#e68843"] ;
247 -> 248 ;
249 [label="gini = 0.0\nsamples = 1\nvalue = [0, 0, 1]\nclass = Stressed", fillcolor="#8139e5"] ;
248 -> 249 ;
250 [label="gini = 0.0\nsamples = 11\nvalue = [19, 0, 0]\nclass = Not stressed", fillcolor="#e58139"] ;
248 -> 250 ;
251 [label="HRR_Mean-2 <= 0.17\ngini = 0.53\nsamples = 20\nvalue = [14, 1, 12]\nclass = Not stressed", fillcolor="#fceee5"] ;
247 -> 251 ;
252 [label="EDAR_Mean-5 <= 0.18\ngini = 0.2\nsamples = 8\nvalue = [0, 1, 8]\nclass = Stressed", fillcolor="#9152e8"] ;
251 -> 252 ;
253 [label="gini = 0.0\nsamples = 7\nvalue = [0, 0, 8]\nclass = Stressed", fillcolor="#8139e5"] ;
252 -> 253 ;
254 [label="gini = 0.0\nsamples = 1\nvalue = [0, 1, 0]\nclass = Middle Value", fillcolor="#39e581"] ;
252 -> 254 ;
255 [label="HRR_Min <= 0.22\ngini = 0.35\nsamples = 12\nvalue = [14, 0, 4]\nclass = Not stressed", fillcolor="#eca572"] ;
251 -> 255 ;
256 [label="gini = 0.0\nsamples = 7\nvalue = [11, 0, 0]\nclass = Not stressed", fillcolor="#e58139"] ;
255 -> 256 ;
257 [label="EDAR_Mean-10 <= 0.14\ngini = 0.49\nsamples = 5\nvalue = [3, 0, 4]\nclass = Stressed", fillcolor="#e0cef8"] ;
255 -> 257 ;
258 [label="gini = 0.0\nsamples = 2\nvalue = [3, 0, 0]\nclass = Not stressed", fillcolor="#e58139"] ;
257 -> 258 ;
259 [label="gini = 0.0\nsamples = 3\nvalue = [0, 0, 4]\nclass = Stressed", fillcolor="#8139e5"] ;
257 -> 259 ;
260 [label="HRR_Mean-6 <= 0.24\ngini = 0.09\nsamples = 23\nvalue = [38, 2, 0]\nclass = Not stressed", fillcolor="#e68843"] ;
238 -> 260 ;
261 [label="gini = 0.0\nsamples = 21\nvalue = [36, 0, 0]\nclass = Not stressed", fillcolor="#e58139"] ;
260 -> 261 ;
262 [label="TEMP_Mean-5 <= 0.13\ngini = 0.5\nsamples = 2\nvalue = [2, 2, 0]\nclass = Not stressed", fillcolor="#ffffff"] ;
260 -> 262 ;
263 [label="gini = 0.0\nsamples = 1\nvalue = [2, 0, 0]\nclass = Not stressed", fillcolor="#e58139"] ;
262 -> 263 ;
264 [label="gini = 0.0\nsamples = 1\nvalue = [0, 2, 0]\nclass = Middle Value", fillcolor="#39e581"] ;
262 -> 264 ;
265 [label="EDAR_Mean-4 <= 0.18\ngini = 0.3\nsamples = 8\nvalue = [2, 0, 9]\nclass = Stressed", fillcolor="#9d65eb"] ;
237 -> 265 ;
266 [label="gini = 0.0\nsamples = 7\nvalue = [0, 0, 9]\nclass = Stressed", fillcolor="#8139e5"] ;
265 -> 266 ;
267 [label="gini = 0.0\nsamples = 1\nvalue = [2, 0, 0]\nclass = Not stressed", fillcolor="#e58139"] ;
265 -> 267 ;
268 [label="EDAR_Mean-2 <= 0.17\ngini = 0.5\nsamples = 14\nvalue = [13, 13, 0]\nclass = Not stressed", fillcolor="#ffffff"] ;
236 -> 268 ;
269 [label="TEMP_Mean-9 <= 0.12\ngini = 0.32\nsamples = 8\nvalue = [12, 3, 0]\nclass = Not stressed", fillcolor="#eca06a"] ;
268 -> 269 ;
270 [label="gini = 0.0\nsamples = 1\nvalue = [0, 3, 0]\nclass = Middle Value", fillcolor="#39e581"] ;
269 -> 270 ;
271 [label="gini = 0.0\nsamples = 7\nvalue = [12, 0, 0]\nclass = Not stressed", fillcolor="#e58139"] ;
269 -> 271 ;
272 [label="HRR_Mean-10 <= 0.22\ngini = 0.17\nsamples = 6\nvalue = [1, 10, 0]\nclass = Middle Value", fillcolor="#4de88e"] ;
268 -> 272 ;
273 [label="gini = 0.0\nsamples = 5\nvalue = [0, 10, 0]\nclass = Middle Value", fillcolor="#39e581"] ;
272 -> 273 ;
274 [label="gini = 0.0\nsamples = 1\nvalue = [1, 0, 0]\nclass = Not stressed", fillcolor="#e58139"] ;
272 -> 274 ;
275 [label="EDAR_Mean-6 <= 0.14\ngini = 0.44\nsamples = 34\nvalue = [4, 39, 12]\nclass = Middle Value", fillcolor="#83efb0"] ;
209 -> 275 ;
276 [label="EDAR_Mean-10 <= 0.13\ngini = 0.65\nsamples = 11\nvalue = [4, 6, 7]\nclass = Stressed", fillcolor="#f4edfd"] ;
275 -> 276 ;
277 [label="HRR_Mean-5 <= 0.15\ngini = 0.48\nsamples = 6\nvalue = [4, 6, 0]\nclass = Middle Value", fillcolor="#bdf6d5"] ;
276 -> 277 ;
278 [label="gini = 0.0\nsamples = 3\nvalue = [4, 0, 0]\nclass = Not stressed", fillcolor="#e58139"] ;
277 -> 278 ;
279 [label="gini = 0.0\nsamples = 3\nvalue = [0, 6, 0]\nclass = Middle Value", fillcolor="#39e581"] ;
277 -> 279 ;
280 [label="gini = 0.0\nsamples = 5\nvalue = [0, 0, 7]\nclass = Stressed", fillcolor="#8139e5"] ;
276 -> 280 ;
281 [label="HRR_Mean-7 <= 0.18\ngini = 0.23\nsamples = 23\nvalue = [0, 33, 5]\nclass = Middle Value", fillcolor="#57e994"] ;
275 -> 281 ;
282 [label="HRR_Mean-7 <= 0.15\ngini = 0.15\nsamples = 22\nvalue = [0, 33, 3]\nclass = Middle Value", fillcolor="#4be78c"] ;
281 -> 282 ;
283 [label="TEMP_Mean-10 <= 0.15\ngini = 0.38\nsamples = 9\nvalue = [0, 9, 3]\nclass = Middle Value", fillcolor="#7beeab"] ;
282 -> 283 ;
284 [label="gini = 0.0\nsamples = 7\nvalue = [0, 9, 0]\nclass = Middle Value", fillcolor="#39e581"] ;
283 -> 284 ;
285 [label="gini = 0.0\nsamples = 2\nvalue = [0, 0, 3]\nclass = Stressed", fillcolor="#8139e5"] ;
283 -> 285 ;
286 [label="gini = 0.0\nsamples = 13\nvalue = [0, 24, 0]\nclass = Middle Value", fillcolor="#39e581"] ;
282 -> 286 ;
287 [label="gini = 0.0\nsamples = 1\nvalue = [0, 0, 2]\nclass = Stressed", fillcolor="#8139e5"] ;
281 -> 287 ;
288 [label="EDAR_Mean-10 <= 0.2\ngini = 0.5\nsamples = 156\nvalue = [66, 19, 152]\nclass = Stressed", fillcolor="#c09bf2"] ;
206 -> 288 ;
289 [label="HRR_Std <= 0.09\ngini = 0.4\nsamples = 108\nvalue = [33, 10, 125]\nclass = Stressed", fillcolor="#a978ed"] ;
288 -> 289 ;
290 [label="EDAR_Std <= 0.01\ngini = 0.32\nsamples = 92\nvalue = [21, 6, 118]\nclass = Stressed", fillcolor="#9c64eb"] ;
289 -> 290 ;
291 [label="gini = 0.0\nsamples = 2\nvalue = [2, 0, 0]\nclass = Not stressed", fillcolor="#e58139"] ;
290 -> 291 ;
292 [label="TEMPR_Mean <= 0.36\ngini = 0.3\nsamples = 90\nvalue = [19, 6, 118]\nclass = Stressed", fillcolor="#9a61ea"] ;
290 -> 292 ;
293 [label="gini = 0.0\nsamples = 3\nvalue = [5, 0, 0]\nclass = Not stressed", fillcolor="#e58139"] ;
292 -> 293 ;
294 [label="HRR_Min <= 0.19\ngini = 0.26\nsamples = 87\nvalue = [14, 6, 118]\nclass = Stressed", fillcolor="#9559e9"] ;
292 -> 294 ;
295 [label="gini = 0.0\nsamples = 6\nvalue = [7, 0, 0]\nclass = Not stressed", fillcolor="#e58139"] ;
294 -> 295 ;
296 [label="EDAR_Min <= 0.18\ngini = 0.18\nsamples = 81\nvalue = [7, 6, 118]\nclass = Stressed", fillcolor="#8e4ee8"] ;
294 -> 296 ;
297 [label="gini = 0.0\nsamples = 44\nvalue = [0, 0, 73]\nclass = Stressed", fillcolor="#8139e5"] ;
296 -> 297 ;
298 [label="TEMP_Mean-7 <= 0.15\ngini = 0.37\nsamples = 37\nvalue = [7, 6, 45]\nclass = Stressed", fillcolor="#a16bec"] ;
296 -> 298 ;
299 [label="gini = 0.0\nsamples = 2\nvalue = [0, 3, 0]\nclass = Middle Value", fillcolor="#39e581"] ;
298 -> 299 ;
300 [label="EDAR_Mean <= 0.18\ngini = 0.31\nsamples = 35\nvalue = [7, 3, 45]\nclass = Stressed", fillcolor="#9b62ea"] ;
298 -> 300 ;
301 [label="gini = 0.0\nsamples = 2\nvalue = [4, 0, 0]\nclass = Not stressed", fillcolor="#e58139"] ;
300 -> 301 ;
302 [label="HRR_Mean-4 <= 0.14\ngini = 0.21\nsamples = 33\nvalue = [3, 3, 45]\nclass = Stressed", fillcolor="#9152e8"] ;
300 -> 302 ;
303 [label="gini = 0.0\nsamples = 1\nvalue = [0, 2, 0]\nclass = Middle Value", fillcolor="#39e581"] ;
302 -> 303 ;
304 [label="EDAR_Skew <= 0.37\ngini = 0.15\nsamples = 32\nvalue = [3, 1, 45]\nclass = Stressed", fillcolor="#8c4ae7"] ;
302 -> 304 ;
305 [label="TEMP_Mean-9 <= 0.21\ngini = 0.48\nsamples = 4\nvalue = [2, 0, 3]\nclass = Stressed", fillcolor="#d5bdf6"] ;
304 -> 305 ;
306 [label="gini = 0.0\nsamples = 2\nvalue = [2, 0, 0]\nclass = Not stressed", fillcolor="#e58139"] ;
305 -> 306 ;
307 [label="gini = 0.0\nsamples = 2\nvalue = [0, 0, 3]\nclass = Stressed", fillcolor="#8139e5"] ;
305 -> 307 ;
308 [label="TEMP_Mean-9 <= 0.15\ngini = 0.09\nsamples = 28\nvalue = [1, 1, 42]\nclass = Stressed", fillcolor="#8742e6"] ;
304 -> 308 ;
309 [label="TEMP_Mean-1 <= 0.18\ngini = 0.5\nsamples = 2\nvalue = [0, 1, 1]\nclass = Middle Value", fillcolor="#ffffff"] ;
308 -> 309 ;
310 [label="gini = 0.0\nsamples = 1\nvalue = [0, 0, 1]\nclass = Stressed", fillcolor="#8139e5"] ;
309 -> 310 ;
311 [label="gini = 0.0\nsamples = 1\nvalue = [0, 1, 0]\nclass = Middle Value", fillcolor="#39e581"] ;
309 -> 311 ;
312 [label="TEMP_Mean-7 <= 0.19\ngini = 0.05\nsamples = 26\nvalue = [1, 0, 41]\nclass = Stressed", fillcolor="#843ee6"] ;
308 -> 312 ;
313 [label="gini = 0.0\nsamples = 19\nvalue = [0, 0, 32]\nclass = Stressed", fillcolor="#8139e5"] ;
312 -> 313 ;
314 [label="TEMP_Mean-4 <= 0.18\ngini = 0.18\nsamples = 7\nvalue = [1, 0, 9]\nclass = Stressed", fillcolor="#8f4fe8"] ;
312 -> 314 ;
315 [label="gini = 0.0\nsamples = 1\nvalue = [1, 0, 0]\nclass = Not stressed", fillcolor="#e58139"] ;
314 -> 315 ;
316 [label="gini = 0.0\nsamples = 6\nvalue = [0, 0, 9]\nclass = Stressed", fillcolor="#8139e5"] ;
314 -> 316 ;
317 [label="EDAR_Mean-7 <= 0.16\ngini = 0.6\nsamples = 16\nvalue = [12, 4, 7]\nclass = Not stressed", fillcolor="#f7d8c1"] ;
289 -> 317 ;
318 [label="HRR_Mean-9 <= 0.29\ngini = 0.32\nsamples = 3\nvalue = [0, 4, 1]\nclass = Middle Value", fillcolor="#6aeca0"] ;
317 -> 318 ;
319 [label="gini = 0.0\nsamples = 2\nvalue = [0, 4, 0]\nclass = Middle Value", fillcolor="#39e581"] ;
318 -> 319 ;
320 [label="gini = 0.0\nsamples = 1\nvalue = [0, 0, 1]\nclass = Stressed", fillcolor="#8139e5"] ;
318 -> 320 ;
321 [label="HRR_Mean-4 <= 0.15\ngini = 0.44\nsamples = 13\nvalue = [12, 0, 6]\nclass = Not stressed", fillcolor="#f2c09c"] ;
317 -> 321 ;
322 [label="gini = 0.0\nsamples = 2\nvalue = [0, 0, 3]\nclass = Stressed", fillcolor="#8139e5"] ;
321 -> 322 ;
323 [label="EDAR_Mean-7 <= 0.19\ngini = 0.32\nsamples = 11\nvalue = [12, 0, 3]\nclass = Not stressed", fillcolor="#eca06a"] ;
321 -> 323 ;
324 [label="HRR_Mean-6 <= 0.21\ngini = 0.14\nsamples = 10\nvalue = [12, 0, 1]\nclass = Not stressed", fillcolor="#e78c49"] ;
323 -> 324 ;
325 [label="gini = 0.0\nsamples = 7\nvalue = [10, 0, 0]\nclass = Not stressed", fillcolor="#e58139"] ;
324 -> 325 ;
326 [label="HRR_Mean-9 <= 0.21\ngini = 0.44\nsamples = 3\nvalue = [2, 0, 1]\nclass = Not stressed", fillcolor="#f2c09c"] ;
324 -> 326 ;
327 [label="gini = 0.0\nsamples = 1\nvalue = [0, 0, 1]\nclass = Stressed", fillcolor="#8139e5"] ;
326 -> 327 ;
328 [label="gini = 0.0\nsamples = 2\nvalue = [2, 0, 0]\nclass = Not stressed", fillcolor="#e58139"] ;
326 -> 328 ;
329 [label="gini = 0.0\nsamples = 1\nvalue = [0, 0, 2]\nclass = Stressed", fillcolor="#8139e5"] ;
323 -> 329 ;
330 [label="EDAR_Mean-9 <= 0.24\ngini = 0.6\nsamples = 48\nvalue = [33, 9, 27]\nclass = Not stressed", fillcolor="#fbede3"] ;
288 -> 330 ;
331 [label="EDAR_Mean-2 <= 0.19\ngini = 0.51\nsamples = 38\nvalue = [33, 2, 20]\nclass = Not stressed", fillcolor="#f5d0b5"] ;
330 -> 331 ;
332 [label="HRR_Mean-6 <= 0.14\ngini = 0.36\nsamples = 25\nvalue = [28, 2, 6]\nclass = Not stressed", fillcolor="#eca36e"] ;
331 -> 332 ;
333 [label="EDAR_Mean-2 <= 0.17\ngini = 0.44\nsamples = 4\nvalue = [0, 2, 4]\nclass = Stressed", fillcolor="#c09cf2"] ;
332 -> 333 ;
334 [label="gini = 0.0\nsamples = 3\nvalue = [0, 0, 4]\nclass = Stressed", fillcolor="#8139e5"] ;
333 -> 334 ;
335 [label="gini = 0.0\nsamples = 1\nvalue = [0, 2, 0]\nclass = Middle Value", fillcolor="#39e581"] ;
333 -> 335 ;
336 [label="TEMPR_Min <= 0.43\ngini = 0.12\nsamples = 21\nvalue = [28, 0, 2]\nclass = Not stressed", fillcolor="#e78a47"] ;
332 -> 336 ;
337 [label="EDAR_Mean-8 <= 0.2\ngini = 0.44\nsamples = 3\nvalue = [4, 0, 2]\nclass = Not stressed", fillcolor="#f2c09c"] ;
336 -> 337 ;
338 [label="gini = 0.0\nsamples = 2\nvalue = [4, 0, 0]\nclass = Not stressed", fillcolor="#e58139"] ;
337 -> 338 ;
339 [label="gini = 0.0\nsamples = 1\nvalue = [0, 0, 2]\nclass = Stressed", fillcolor="#8139e5"] ;
337 -> 339 ;
340 [label="gini = 0.0\nsamples = 18\nvalue = [24, 0, 0]\nclass = Not stressed", fillcolor="#e58139"] ;
336 -> 340 ;
341 [label="TEMP_Mean-2 <= 0.21\ngini = 0.39\nsamples = 13\nvalue = [5, 0, 14]\nclass = Stressed", fillcolor="#ae80ee"] ;
331 -> 341 ;
342 [label="EDAR_Mean-8 <= 0.21\ngini = 0.5\nsamples = 8\nvalue = [5, 0, 5]\nclass = Not stressed", fillcolor="#ffffff"] ;
341 -> 342 ;
343 [label="gini = 0.0\nsamples = 3\nvalue = [0, 0, 4]\nclass = Stressed", fillcolor="#8139e5"] ;
342 -> 343 ;
344 [label="HRR_Mean-5 <= 0.19\ngini = 0.28\nsamples = 5\nvalue = [5, 0, 1]\nclass = Not stressed", fillcolor="#ea9a61"] ;
342 -> 344 ;
345 [label="gini = 0.0\nsamples = 4\nvalue = [5, 0, 0]\nclass = Not stressed", fillcolor="#e58139"] ;
344 -> 345 ;
346 [label="gini = 0.0\nsamples = 1\nvalue = [0, 0, 1]\nclass = Stressed", fillcolor="#8139e5"] ;
344 -> 346 ;
347 [label="gini = 0.0\nsamples = 5\nvalue = [0, 0, 9]\nclass = Stressed", fillcolor="#8139e5"] ;
341 -> 347 ;
348 [label="TEMP_Mean-3 <= 0.24\ngini = 0.5\nsamples = 10\nvalue = [0, 7, 7]\nclass = Middle Value", fillcolor="#ffffff"] ;
330 -> 348 ;
349 [label="EDAR_Mean-2 <= 0.2\ngini = 0.22\nsamples = 7\nvalue = [0, 7, 1]\nclass = Middle Value", fillcolor="#55e993"] ;
348 -> 349 ;
350 [label="gini = 0.0\nsamples = 6\nvalue = [0, 7, 0]\nclass = Middle Value", fillcolor="#39e581"] ;
349 -> 350 ;
351 [label="gini = 0.0\nsamples = 1\nvalue = [0, 0, 1]\nclass = Stressed", fillcolor="#8139e5"] ;
349 -> 351 ;
352 [label="gini = 0.0\nsamples = 3\nvalue = [0, 0, 6]\nclass = Stressed", fillcolor="#8139e5"] ;
348 -> 352 ;
353 [label="HRR_Mean-2 <= 0.23\ngini = 0.02\nsamples = 117\nvalue = [182, 0, 2]\nclass = Not stressed", fillcolor="#e5823b"] ;
35 -> 353 ;
354 [label="gini = 0.0\nsamples = 116\nvalue = [182, 0, 0]\nclass = Not stressed", fillcolor="#e58139"] ;
353 -> 354 ;
355 [label="gini = 0.0\nsamples = 1\nvalue = [0, 0, 2]\nclass = Stressed", fillcolor="#8139e5"] ;
353 -> 355 ;
356 [label="HRR_Mean-3 <= 0.18\ngini = 0.23\nsamples = 698\nvalue = [938, 26, 113]\nclass = Not stressed", fillcolor="#e99356"] ;
34 -> 356 ;
357 [label="TEMPR_Min <= 0.26\ngini = 0.07\nsamples = 500\nvalue = [739, 3, 25]\nclass = Not stressed", fillcolor="#e68640"] ;
356 -> 357 ;
358 [label="TEMP_Mean-3 <= 0.18\ngini = 0.52\nsamples = 37\nvalue = [34, 2, 25]\nclass = Not stressed", fillcolor="#f8e0ce"] ;
357 -> 358 ;
359 [label="gini = 0.0\nsamples = 20\nvalue = [33, 0, 0]\nclass = Not stressed", fillcolor="#e58139"] ;
358 -> 359 ;
360 [label="TEMPR_Max <= 0.25\ngini = 0.2\nsamples = 17\nvalue = [1, 2, 25]\nclass = Stressed", fillcolor="#9050e8"] ;
358 -> 360 ;
361 [label="EDAR_Max <= 0.14\ngini = 0.07\nsamples = 16\nvalue = [1, 0, 25]\nclass = Stressed", fillcolor="#8641e6"] ;
360 -> 361 ;
362 [label="gini = 0.0\nsamples = 1\nvalue = [1, 0, 0]\nclass = Not stressed", fillcolor="#e58139"] ;
361 -> 362 ;
363 [label="gini = 0.0\nsamples = 15\nvalue = [0, 0, 25]\nclass = Stressed", fillcolor="#8139e5"] ;
361 -> 363 ;
364 [label="gini = 0.0\nsamples = 1\nvalue = [0, 2, 0]\nclass = Middle Value", fillcolor="#39e581"] ;
360 -> 364 ;
365 [label="TEMP_Mean-10 <= 0.12\ngini = 0.0\nsamples = 463\nvalue = [705, 1, 0]\nclass = Not stressed", fillcolor="#e58139"] ;
357 -> 365 ;
366 [label="EDAR_Mean-1 <= 0.19\ngini = 0.03\nsamples = 51\nvalue = [75, 1, 0]\nclass = Not stressed", fillcolor="#e5833c"] ;
365 -> 366 ;
367 [label="gini = 0.0\nsamples = 49\nvalue = [73, 0, 0]\nclass = Not stressed", fillcolor="#e58139"] ;
366 -> 367 ;
368 [label="HRR_Mean-8 <= 0.11\ngini = 0.44\nsamples = 2\nvalue = [2, 1, 0]\nclass = Not stressed", fillcolor="#f2c09c"] ;
366 -> 368 ;
369 [label="gini = 0.0\nsamples = 1\nvalue = [2, 0, 0]\nclass = Not stressed", fillcolor="#e58139"] ;
368 -> 369 ;
370 [label="gini = 0.0\nsamples = 1\nvalue = [0, 1, 0]\nclass = Middle Value", fillcolor="#39e581"] ;
368 -> 370 ;
371 [label="gini = 0.0\nsamples = 412\nvalue = [630, 0, 0]\nclass = Not stressed", fillcolor="#e58139"] ;
365 -> 371 ;
372 [label="TEMP_Mean-4 <= 0.18\ngini = 0.5\nsamples = 198\nvalue = [199, 23, 88]\nclass = Not stressed", fillcolor="#f2c09c"] ;
356 -> 372 ;
373 [label="EDAR_Min <= 0.19\ngini = 0.21\nsamples = 58\nvalue = [76, 6, 4]\nclass = Not stressed", fillcolor="#e89152"] ;
372 -> 373 ;
374 [label="TEMPR_Mean <= 0.07\ngini = 0.08\nsamples = 50\nvalue = [71, 0, 3]\nclass = Not stressed", fillcolor="#e68641"] ;
373 -> 374 ;
375 [label="gini = 0.0\nsamples = 3\nvalue = [0, 0, 3]\nclass = Stressed", fillcolor="#8139e5"] ;
374 -> 375 ;
376 [label="gini = 0.0\nsamples = 47\nvalue = [71, 0, 0]\nclass = Not stressed", fillcolor="#e58139"] ;
374 -> 376 ;
377 [label="HRR_Mean-1 <= 0.19\ngini = 0.57\nsamples = 8\nvalue = [5, 6, 1]\nclass = Middle Value", fillcolor="#e3fbed"] ;
373 -> 377 ;
378 [label="TEMP_Mean-10 <= 0.18\ngini = 0.28\nsamples = 4\nvalue = [5, 0, 1]\nclass = Not stressed", fillcolor="#ea9a61"] ;
377 -> 378 ;
379 [label="gini = 0.0\nsamples = 3\nvalue = [5, 0, 0]\nclass = Not stressed", fillcolor="#e58139"] ;
378 -> 379 ;
380 [label="gini = 0.0\nsamples = 1\nvalue = [0, 0, 1]\nclass = Stressed", fillcolor="#8139e5"] ;
378 -> 380 ;
381 [label="gini = 0.0\nsamples = 4\nvalue = [0, 6, 0]\nclass = Middle Value", fillcolor="#39e581"] ;
377 -> 381 ;
382 [label="EDAR_Mean-5 <= 0.16\ngini = 0.55\nsamples = 140\nvalue = [123, 17, 84]\nclass = Not stressed", fillcolor="#f8dcc8"] ;
372 -> 382 ;
383 [label="gini = 0.0\nsamples = 13\nvalue = [18, 0, 0]\nclass = Not stressed", fillcolor="#e58139"] ;
382 -> 383 ;
384 [label="EDAR_Skew <= 0.34\ngini = 0.57\nsamples = 127\nvalue = [105, 17, 84]\nclass = Not stressed", fillcolor="#fbe9dd"] ;
382 -> 384 ;
385 [label="EDAR_Mean-8 <= 0.2\ngini = 0.23\nsamples = 8\nvalue = [2, 0, 13]\nclass = Stressed", fillcolor="#9457e9"] ;
384 -> 385 ;
386 [label="gini = 0.0\nsamples = 5\nvalue = [0, 0, 12]\nclass = Stressed", fillcolor="#8139e5"] ;
385 -> 386 ;
387 [label="HRR_Min <= 0.81\ngini = 0.44\nsamples = 3\nvalue = [2, 0, 1]\nclass = Not stressed", fillcolor="#f2c09c"] ;
385 -> 387 ;
388 [label="gini = 0.0\nsamples = 2\nvalue = [2, 0, 0]\nclass = Not stressed", fillcolor="#e58139"] ;
387 -> 388 ;
389 [label="gini = 0.0\nsamples = 1\nvalue = [0, 0, 1]\nclass = Stressed", fillcolor="#8139e5"] ;
387 -> 389 ;
390 [label="HRR_Max <= 0.86\ngini = 0.56\nsamples = 119\nvalue = [103, 17, 71]\nclass = Not stressed", fillcolor="#f8ddca"] ;
384 -> 390 ;
391 [label="TEMPR_Min <= 0.34\ngini = 0.59\nsamples = 97\nvalue = [61, 17, 71]\nclass = Stressed", fillcolor="#f1e9fc"] ;
390 -> 391 ;
392 [label="TEMPR_Std <= 0.18\ngini = 0.45\nsamples = 64\nvalue = [15, 13, 70]\nclass = Stressed", fillcolor="#ac7cee"] ;
391 -> 392 ;
393 [label="EDAR_Mean-1 <= 0.16\ngini = 0.34\nsamples = 54\nvalue = [4, 13, 67]\nclass = Stressed", fillcolor="#9f68eb"] ;
392 -> 393 ;
394 [label="EDAR_Max <= 0.16\ngini = 0.44\nsamples = 5\nvalue = [0, 6, 3]\nclass = Middle Value", fillcolor="#9cf2c0"] ;
393 -> 394 ;
395 [label="gini = 0.0\nsamples = 2\nvalue = [0, 0, 3]\nclass = Stressed", fillcolor="#8139e5"] ;
394 -> 395 ;
396 [label="gini = 0.0\nsamples = 3\nvalue = [0, 6, 0]\nclass = Middle Value", fillcolor="#39e581"] ;
394 -> 396 ;
397 [label="TEMP_Mean-6 <= 0.19\ngini = 0.26\nsamples = 49\nvalue = [4, 7, 64]\nclass = Stressed", fillcolor="#9559e9"] ;
393 -> 397 ;
398 [label="HRR_Mean-1 <= 0.19\ngini = 0.64\nsamples = 7\nvalue = [2, 3, 4]\nclass = Stressed", fillcolor="#eadefb"] ;
397 -> 398 ;
399 [label="gini = 0.0\nsamples = 2\nvalue = [0, 0, 4]\nclass = Stressed", fillcolor="#8139e5"] ;
398 -> 399 ;
400 [label="EDAR_Mean-4 <= 0.18\ngini = 0.48\nsamples = 5\nvalue = [2, 3, 0]\nclass = Middle Value", fillcolor="#bdf6d5"] ;
398 -> 400 ;
401 [label="gini = 0.0\nsamples = 2\nvalue = [2, 0, 0]\nclass = Not stressed", fillcolor="#e58139"] ;
400 -> 401 ;
402 [label="gini = 0.0\nsamples = 3\nvalue = [0, 3, 0]\nclass = Middle Value", fillcolor="#39e581"] ;
400 -> 402 ;
403 [label="EDAR_Std <= 0.11\ngini = 0.17\nsamples = 42\nvalue = [2, 4, 60]\nclass = Stressed", fillcolor="#8d4ce8"] ;
397 -> 403 ;
404 [label="EDAR_Mean-7 <= 0.16\ngini = 0.12\nsamples = 39\nvalue = [0, 4, 58]\nclass = Stressed", fillcolor="#8a47e7"] ;
403 -> 404 ;
405 [label="gini = 0.0\nsamples = 1\nvalue = [0, 2, 0]\nclass = Middle Value", fillcolor="#39e581"] ;
404 -> 405 ;
406 [label="EDAR_Mean-2 <= 0.16\ngini = 0.06\nsamples = 38\nvalue = [0, 2, 58]\nclass = Stressed", fillcolor="#8540e6"] ;
404 -> 406 ;
407 [label="HRR_Mean-5 <= 0.2\ngini = 0.5\nsamples = 2\nvalue = [0, 1, 1]\nclass = Middle Value", fillcolor="#ffffff"] ;
406 -> 407 ;
408 [label="gini = 0.0\nsamples = 1\nvalue = [0, 1, 0]\nclass = Middle Value", fillcolor="#39e581"] ;
407 -> 408 ;
409 [label="gini = 0.0\nsamples = 1\nvalue = [0, 0, 1]\nclass = Stressed", fillcolor="#8139e5"] ;
407 -> 409 ;
410 [label="HRR_Mean-10 <= 0.19\ngini = 0.03\nsamples = 36\nvalue = [0, 1, 57]\nclass = Stressed", fillcolor="#833ce5"] ;
406 -> 410 ;
411 [label="HRR_Max <= 0.78\ngini = 0.12\nsamples = 9\nvalue = [0, 1, 15]\nclass = Stressed", fillcolor="#8946e7"] ;
410 -> 411 ;
412 [label="gini = 0.0\nsamples = 8\nvalue = [0, 0, 15]\nclass = Stressed", fillcolor="#8139e5"] ;
411 -> 412 ;
413 [label="gini = 0.0\nsamples = 1\nvalue = [0, 1, 0]\nclass = Middle Value", fillcolor="#39e581"] ;
411 -> 413 ;
414 [label="gini = 0.0\nsamples = 27\nvalue = [0, 0, 42]\nclass = Stressed", fillcolor="#8139e5"] ;
410 -> 414 ;
415 [label="EDAR_Std <= 0.13\ngini = 0.5\nsamples = 3\nvalue = [2, 0, 2]\nclass = Not stressed", fillcolor="#ffffff"] ;
403 -> 415 ;
416 [label="gini = 0.0\nsamples = 1\nvalue = [2, 0, 0]\nclass = Not stressed", fillcolor="#e58139"] ;
415 -> 416 ;
417 [label="gini = 0.0\nsamples = 2\nvalue = [0, 0, 2]\nclass = Stressed", fillcolor="#8139e5"] ;
415 -> 417 ;
418 [label="TEMP_Mean-3 <= 0.19\ngini = 0.34\nsamples = 10\nvalue = [11, 0, 3]\nclass = Not stressed", fillcolor="#eca36f"] ;
392 -> 418 ;
419 [label="EDAR_Mean-8 <= 0.18\ngini = 0.38\nsamples = 4\nvalue = [1, 0, 3]\nclass = Stressed", fillcolor="#ab7bee"] ;
418 -> 419 ;
420 [label="gini = 0.0\nsamples = 1\nvalue = [1, 0, 0]\nclass = Not stressed", fillcolor="#e58139"] ;
419 -> 420 ;
421 [label="gini = 0.0\nsamples = 3\nvalue = [0, 0, 3]\nclass = Stressed", fillcolor="#8139e5"] ;
419 -> 421 ;
422 [label="gini = 0.0\nsamples = 6\nvalue = [10, 0, 0]\nclass = Not stressed", fillcolor="#e58139"] ;
418 -> 422 ;
423 [label="HRR_Std <= 0.02\ngini = 0.18\nsamples = 33\nvalue = [46, 4, 1]\nclass = Not stressed", fillcolor="#e88e4e"] ;
391 -> 423 ;
424 [label="gini = 0.0\nsamples = 1\nvalue = [0, 2, 0]\nclass = Middle Value", fillcolor="#39e581"] ;
423 -> 424 ;
425 [label="TEMPR_Std <= 0.13\ngini = 0.12\nsamples = 32\nvalue = [46, 2, 1]\nclass = Not stressed", fillcolor="#e78946"] ;
423 -> 425 ;
426 [label="HRR_Mean-6 <= 0.24\ngini = 0.08\nsamples = 31\nvalue = [46, 2, 0]\nclass = Not stressed", fillcolor="#e68642"] ;
425 -> 426 ;
427 [label="gini = 0.0\nsamples = 27\nvalue = [39, 0, 0]\nclass = Not stressed", fillcolor="#e58139"] ;
426 -> 427 ;
428 [label="HRR_Mean-1 <= 0.19\ngini = 0.35\nsamples = 4\nvalue = [7, 2, 0]\nclass = Not stressed", fillcolor="#eca572"] ;
426 -> 428 ;
429 [label="gini = 0.0\nsamples = 1\nvalue = [0, 2, 0]\nclass = Middle Value", fillcolor="#39e581"] ;
428 -> 429 ;
430 [label="gini = 0.0\nsamples = 3\nvalue = [7, 0, 0]\nclass = Not stressed", fillcolor="#e58139"] ;
428 -> 430 ;
431 [label="gini = 0.0\nsamples = 1\nvalue = [0, 0, 1]\nclass = Stressed", fillcolor="#8139e5"] ;
425 -> 431 ;
432 [label="gini = 0.0\nsamples = 22\nvalue = [42, 0, 0]\nclass = Not stressed", fillcolor="#e58139"] ;
390 -> 432 ;
433 [label="TEMPR_Max <= 0.57\ngini = 0.64\nsamples = 309\nvalue = [141, 121, 228]\nclass = Stressed", fillcolor="#e0cef9"] ;
33 -> 433 ;
434 [label="HRR_Max <= 0.23\ngini = 0.57\nsamples = 221\nvalue = [66, 80, 212]\nclass = Stressed", fillcolor="#c3a1f3"] ;
433 -> 434 ;
435 [label="TEMP_Mean-5 <= 0.22\ngini = 0.51\nsamples = 30\nvalue = [30, 9, 7]\nclass = Not stressed", fillcolor="#f0b78f"] ;
434 -> 435 ;
436 [label="gini = 0.0\nsamples = 2\nvalue = [0, 0, 3]\nclass = Stressed", fillcolor="#8139e5"] ;
435 -> 436 ;
437 [label="HRR_Mean-5 <= 0.28\ngini = 0.46\nsamples = 28\nvalue = [30, 9, 4]\nclass = Not stressed", fillcolor="#efb185"] ;
435 -> 437 ;
438 [label="HRR_Mean-2 <= 0.34\ngini = 0.21\nsamples = 22\nvalue = [30, 3, 1]\nclass = Not stressed", fillcolor="#e89153"] ;
437 -> 438 ;
439 [label="EDAR_Mean-5 <= 0.22\ngini = 0.06\nsamples = 20\nvalue = [30, 0, 1]\nclass = Not stressed", fillcolor="#e68540"] ;
438 -> 439 ;
440 [label="gini = 0.0\nsamples = 15\nvalue = [25, 0, 0]\nclass = Not stressed", fillcolor="#e58139"] ;
439 -> 440 ;
441 [label="HRR_Mean-2 <= 0.26\ngini = 0.28\nsamples = 5\nvalue = [5, 0, 1]\nclass = Not stressed", fillcolor="#ea9a61"] ;
439 -> 441 ;
442 [label="gini = 0.0\nsamples = 4\nvalue = [5, 0, 0]\nclass = Not stressed", fillcolor="#e58139"] ;
441 -> 442 ;
443 [label="gini = 0.0\nsamples = 1\nvalue = [0, 0, 1]\nclass = Stressed", fillcolor="#8139e5"] ;
441 -> 443 ;
444 [label="gini = 0.0\nsamples = 2\nvalue = [0, 3, 0]\nclass = Middle Value", fillcolor="#39e581"] ;
438 -> 444 ;
445 [label="HRR_Mean-1 <= 0.29\ngini = 0.44\nsamples = 6\nvalue = [0, 6, 3]\nclass = Middle Value", fillcolor="#9cf2c0"] ;
437 -> 445 ;
446 [label="gini = 0.0\nsamples = 2\nvalue = [0, 5, 0]\nclass = Middle Value", fillcolor="#39e581"] ;
445 -> 446 ;
447 [label="EDAR_Mean-10 <= 0.21\ngini = 0.38\nsamples = 4\nvalue = [0, 1, 3]\nclass = Stressed", fillcolor="#ab7bee"] ;
445 -> 447 ;
448 [label="EDAR_Mean-2 <= 0.14\ngini = 0.5\nsamples = 2\nvalue = [0, 1, 1]\nclass = Middle Value", fillcolor="#ffffff"] ;
447 -> 448 ;
449 [label="gini = 0.0\nsamples = 1\nvalue = [0, 0, 1]\nclass = Stressed", fillcolor="#8139e5"] ;
448 -> 449 ;
450 [label="gini = 0.0\nsamples = 1\nvalue = [0, 1, 0]\nclass = Middle Value", fillcolor="#39e581"] ;
448 -> 450 ;
451 [label="gini = 0.0\nsamples = 2\nvalue = [0, 0, 2]\nclass = Stressed", fillcolor="#8139e5"] ;
447 -> 451 ;
452 [label="EDAR_Mean-1 <= 0.12\ngini = 0.5\nsamples = 191\nvalue = [36, 71, 205]\nclass = Stressed", fillcolor="#b991f1"] ;
434 -> 452 ;
453 [label="EDAR_Mean-3 <= 0.1\ngini = 0.56\nsamples = 15\nvalue = [8, 12, 2]\nclass = Middle Value", fillcolor="#c6f8db"] ;
452 -> 453 ;
454 [label="TEMP_Mean-8 <= 0.28\ngini = 0.32\nsamples = 7\nvalue = [8, 0, 2]\nclass = Not stressed", fillcolor="#eca06a"] ;
453 -> 454 ;
455 [label="gini = 0.0\nsamples = 6\nvalue = [8, 0, 0]\nclass = Not stressed", fillcolor="#e58139"] ;
454 -> 455 ;
456 [label="gini = 0.0\nsamples = 1\nvalue = [0, 0, 2]\nclass = Stressed", fillcolor="#8139e5"] ;
454 -> 456 ;
457 [label="gini = 0.0\nsamples = 8\nvalue = [0, 12, 0]\nclass = Middle Value", fillcolor="#39e581"] ;
453 -> 457 ;
458 [label="HRR_Min <= 0.83\ngini = 0.46\nsamples = 176\nvalue = [28, 59, 203]\nclass = Stressed", fillcolor="#b084ef"] ;
452 -> 458 ;
459 [label="HRR_Mean-1 <= 0.19\ngini = 0.42\nsamples = 169\nvalue = [17, 59, 203]\nclass = Stressed", fillcolor="#ad7dee"] ;
458 -> 459 ;
460 [label="gini = 0.0\nsamples = 2\nvalue = [0, 7, 0]\nclass = Middle Value", fillcolor="#39e581"] ;
459 -> 460 ;
461 [label="EDAR_Mean-3 <= 0.12\ngini = 0.4\nsamples = 167\nvalue = [17, 52, 203]\nclass = Stressed", fillcolor="#a977ed"] ;
459 -> 461 ;
462 [label="gini = 0.0\nsamples = 2\nvalue = [0, 5, 0]\nclass = Middle Value", fillcolor="#39e581"] ;
461 -> 462 ;
463 [label="EDAR_Max <= 0.19\ngini = 0.39\nsamples = 165\nvalue = [17, 47, 203]\nclass = Stressed", fillcolor="#a673ed"] ;
461 -> 463 ;
464 [label="EDAR_Mean-7 <= 0.38\ngini = 0.27\nsamples = 117\nvalue = [3, 26, 158]\nclass = Stressed", fillcolor="#985dea"] ;
463 -> 464 ;
465 [label="TEMPR_Min <= 0.39\ngini = 0.23\nsamples = 113\nvalue = [3, 21, 157]\nclass = Stressed", fillcolor="#9457e9"] ;
464 -> 465 ;
466 [label="TEMPR_Min <= 0.26\ngini = 0.4\nsamples = 43\nvalue = [2, 15, 48]\nclass = Stressed", fillcolor="#ac7cee"] ;
465 -> 466 ;
467 [label="TEMPR_Max <= 0.2\ngini = 0.18\nsamples = 35\nvalue = [2, 3, 47]\nclass = Stressed", fillcolor="#8e4de8"] ;
466 -> 467 ;
468 [label="TEMP_Mean-4 <= 0.16\ngini = 0.09\nsamples = 29\nvalue = [1, 1, 43]\nclass = Stressed", fillcolor="#8742e6"] ;
467 -> 468 ;
469 [label="gini = 0.0\nsamples = 1\nvalue = [0, 1, 0]\nclass = Middle Value", fillcolor="#39e581"] ;
468 -> 469 ;
470 [label="TEMP_Mean-9 <= 0.28\ngini = 0.04\nsamples = 28\nvalue = [1, 0, 43]\nclass = Stressed", fillcolor="#843ee6"] ;
468 -> 470 ;
471 [label="gini = 0.0\nsamples = 24\nvalue = [0, 0, 38]\nclass = Stressed", fillcolor="#8139e5"] ;
470 -> 471 ;
472 [label="HRR_Mean-10 <= 0.47\ngini = 0.28\nsamples = 4\nvalue = [1, 0, 5]\nclass = Stressed", fillcolor="#9a61ea"] ;
470 -> 472 ;
473 [label="gini = 0.0\nsamples = 1\nvalue = [1, 0, 0]\nclass = Not stressed", fillcolor="#e58139"] ;
472 -> 473 ;
474 [label="gini = 0.0\nsamples = 3\nvalue = [0, 0, 5]\nclass = Stressed", fillcolor="#8139e5"] ;
472 -> 474 ;
475 [label="HRR_Mean-8 <= 0.25\ngini = 0.57\nsamples = 6\nvalue = [1, 2, 4]\nclass = Stressed", fillcolor="#cdb0f5"] ;
467 -> 475 ;
476 [label="gini = 0.0\nsamples = 3\nvalue = [0, 0, 4]\nclass = Stressed", fillcolor="#8139e5"] ;
475 -> 476 ;
477 [label="EDAR_Mean-2 <= 0.17\ngini = 0.44\nsamples = 3\nvalue = [1, 2, 0]\nclass = Middle Value", fillcolor="#9cf2c0"] ;
475 -> 477 ;
478 [label="gini = 0.0\nsamples = 2\nvalue = [0, 2, 0]\nclass = Middle Value", fillcolor="#39e581"] ;
477 -> 478 ;
479 [label="gini = 0.0\nsamples = 1\nvalue = [1, 0, 0]\nclass = Not stressed", fillcolor="#e58139"] ;
477 -> 479 ;
480 [label="EDAR_Min <= 0.16\ngini = 0.14\nsamples = 8\nvalue = [0, 12, 1]\nclass = Middle Value", fillcolor="#49e78c"] ;
466 -> 480 ;
481 [label="gini = 0.0\nsamples = 7\nvalue = [0, 12, 0]\nclass = Middle Value", fillcolor="#39e581"] ;
480 -> 481 ;
482 [label="gini = 0.0\nsamples = 1\nvalue = [0, 0, 1]\nclass = Stressed", fillcolor="#8139e5"] ;
480 -> 482 ;
483 [label="EDAR_Mean-1 <= 0.19\ngini = 0.11\nsamples = 70\nvalue = [1, 6, 109]\nclass = Stressed", fillcolor="#8946e7"] ;
465 -> 483 ;
484 [label="EDAR_Mean-8 <= 0.34\ngini = 0.09\nsamples = 67\nvalue = [0, 5, 107]\nclass = Stressed", fillcolor="#8742e6"] ;
483 -> 484 ;
485 [label="EDAR_Mean-1 <= 0.17\ngini = 0.06\nsamples = 62\nvalue = [0, 3, 103]\nclass = Stressed", fillcolor="#853fe6"] ;
484 -> 485 ;
486 [label="gini = 0.0\nsamples = 41\nvalue = [0, 0, 67]\nclass = Stressed", fillcolor="#8139e5"] ;
485 -> 486 ;
487 [label="TEMP_Mean-3 <= 0.41\ngini = 0.14\nsamples = 21\nvalue = [0, 3, 36]\nclass = Stressed", fillcolor="#8c49e7"] ;
485 -> 487 ;
488 [label="TEMP_Mean-5 <= 0.23\ngini = 0.1\nsamples = 20\nvalue = [0, 2, 36]\nclass = Stressed", fillcolor="#8844e6"] ;
487 -> 488 ;
489 [label="HRR_Mean-3 <= 0.25\ngini = 0.3\nsamples = 7\nvalue = [0, 2, 9]\nclass = Stressed", fillcolor="#9d65eb"] ;
488 -> 489 ;
490 [label="gini = 0.0\nsamples = 4\nvalue = [0, 0, 7]\nclass = Stressed", fillcolor="#8139e5"] ;
489 -> 490 ;
491 [label="EDAR_Min <= 0.17\ngini = 0.5\nsamples = 3\nvalue = [0, 2, 2]\nclass = Middle Value", fillcolor="#ffffff"] ;
489 -> 491 ;
492 [label="gini = 0.0\nsamples = 2\nvalue = [0, 0, 2]\nclass = Stressed", fillcolor="#8139e5"] ;
491 -> 492 ;
493 [label="gini = 0.0\nsamples = 1\nvalue = [0, 2, 0]\nclass = Middle Value", fillcolor="#39e581"] ;
491 -> 493 ;
494 [label="gini = 0.0\nsamples = 13\nvalue = [0, 0, 27]\nclass = Stressed", fillcolor="#8139e5"] ;
488 -> 494 ;
495 [label="gini = 0.0\nsamples = 1\nvalue = [0, 1, 0]\nclass = Middle Value", fillcolor="#39e581"] ;
487 -> 495 ;
496 [label="EDAR_Std <= 0.08\ngini = 0.44\nsamples = 5\nvalue = [0, 2, 4]\nclass = Stressed", fillcolor="#c09cf2"] ;
484 -> 496 ;
497 [label="gini = 0.0\nsamples = 2\nvalue = [0, 2, 0]\nclass = Middle Value", fillcolor="#39e581"] ;
496 -> 497 ;
498 [label="gini = 0.0\nsamples = 3\nvalue = [0, 0, 4]\nclass = Stressed", fillcolor="#8139e5"] ;
496 -> 498 ;
499 [label="TEMP_Mean-3 <= 0.31\ngini = 0.62\nsamples = 3\nvalue = [1, 1, 2]\nclass = Stressed", fillcolor="#d5bdf6"] ;
483 -> 499 ;
500 [label="TEMPR_Min <= 0.5\ngini = 0.5\nsamples = 2\nvalue = [1, 1, 0]\nclass = Not stressed", fillcolor="#ffffff"] ;
499 -> 500 ;
501 [label="gini = 0.0\nsamples = 1\nvalue = [0, 1, 0]\nclass = Middle Value", fillcolor="#39e581"] ;
500 -> 501 ;
502 [label="gini = 0.0\nsamples = 1\nvalue = [1, 0, 0]\nclass = Not stressed", fillcolor="#e58139"] ;
500 -> 502 ;
503 [label="gini = 0.0\nsamples = 1\nvalue = [0, 0, 2]\nclass = Stressed", fillcolor="#8139e5"] ;
499 -> 503 ;
504 [label="TEMP_Mean-10 <= 0.71\ngini = 0.28\nsamples = 4\nvalue = [0, 5, 1]\nclass = Middle Value", fillcolor="#61ea9a"] ;
464 -> 504 ;
505 [label="gini = 0.0\nsamples = 3\nvalue = [0, 5, 0]\nclass = Middle Value", fillcolor="#39e581"] ;
504 -> 505 ;
506 [label="gini = 0.0\nsamples = 1\nvalue = [0, 0, 1]\nclass = Stressed", fillcolor="#8139e5"] ;
504 -> 506 ;
507 [label="HRR_Mean-4 <= 0.25\ngini = 0.58\nsamples = 48\nvalue = [14, 21, 45]\nclass = Stressed", fillcolor="#ccaef4"] ;
463 -> 507 ;
508 [label="TEMPR_Min <= 0.26\ngini = 0.5\nsamples = 38\nvalue = [11, 10, 42]\nclass = Stressed", fillcolor="#b489f0"] ;
507 -> 508 ;
509 [label="HRR_Mean-9 <= 0.19\ngini = 0.24\nsamples = 26\nvalue = [6, 0, 36]\nclass = Stressed", fillcolor="#965ae9"] ;
508 -> 509 ;
510 [label="HRR_Mean-8 <= 0.17\ngini = 0.28\nsamples = 4\nvalue = [5, 0, 1]\nclass = Not stressed", fillcolor="#ea9a61"] ;
509 -> 510 ;
511 [label="gini = 0.0\nsamples = 1\nvalue = [0, 0, 1]\nclass = Stressed", fillcolor="#8139e5"] ;
510 -> 511 ;
512 [label="gini = 0.0\nsamples = 3\nvalue = [5, 0, 0]\nclass = Not stressed", fillcolor="#e58139"] ;
510 -> 512 ;
513 [label="TEMP_Mean-9 <= 0.31\ngini = 0.05\nsamples = 22\nvalue = [1, 0, 35]\nclass = Stressed", fillcolor="#853fe6"] ;
509 -> 513 ;
514 [label="gini = 0.0\nsamples = 21\nvalue = [0, 0, 35]\nclass = Stressed", fillcolor="#8139e5"] ;
513 -> 514 ;
515 [label="gini = 0.0\nsamples = 1\nvalue = [1, 0, 0]\nclass = Not stressed", fillcolor="#e58139"] ;
513 -> 515 ;
516 [label="HRR_Mean-8 <= 0.22\ngini = 0.63\nsamples = 12\nvalue = [5, 10, 6]\nclass = Middle Value", fillcolor="#caf8dd"] ;
508 -> 516 ;
517 [label="TEMP_Mean-3 <= 0.19\ngini = 0.47\nsamples = 9\nvalue = [0, 10, 6]\nclass = Middle Value", fillcolor="#b0f5cd"] ;
516 -> 517 ;
518 [label="gini = 0.0\nsamples = 1\nvalue = [0, 0, 3]\nclass = Stressed", fillcolor="#8139e5"] ;
517 -> 518 ;
519 [label="HRR_Mean-3 <= 0.19\ngini = 0.36\nsamples = 8\nvalue = [0, 10, 3]\nclass = Middle Value", fillcolor="#74eda7"] ;
517 -> 519 ;
520 [label="gini = 0.0\nsamples = 1\nvalue = [0, 0, 3]\nclass = Stressed", fillcolor="#8139e5"] ;
519 -> 520 ;
521 [label="gini = 0.0\nsamples = 7\nvalue = [0, 10, 0]\nclass = Middle Value", fillcolor="#39e581"] ;
519 -> 521 ;
522 [label="gini = 0.0\nsamples = 3\nvalue = [5, 0, 0]\nclass = Not stressed", fillcolor="#e58139"] ;
516 -> 522 ;
523 [label="TEMP_Mean-6 <= 0.29\ngini = 0.52\nsamples = 10\nvalue = [3, 11, 3]\nclass = Middle Value", fillcolor="#8ef0b7"] ;
507 -> 523 ;
524 [label="gini = 0.0\nsamples = 4\nvalue = [0, 8, 0]\nclass = Middle Value", fillcolor="#39e581"] ;
523 -> 524 ;
525 [label="TEMPR_Min <= 0.33\ngini = 0.67\nsamples = 6\nvalue = [3, 3, 3]\nclass = Not stressed", fillcolor="#ffffff"] ;
523 -> 525 ;
526 [label="gini = 0.0\nsamples = 2\nvalue = [3, 0, 0]\nclass = Not stressed", fillcolor="#e58139"] ;
525 -> 526 ;
527 [label="TEMP_Mean-6 <= 0.43\ngini = 0.5\nsamples = 4\nvalue = [0, 3, 3]\nclass = Middle Value", fillcolor="#ffffff"] ;
525 -> 527 ;
528 [label="gini = 0.0\nsamples = 2\nvalue = [0, 0, 3]\nclass = Stressed", fillcolor="#8139e5"] ;
527 -> 528 ;
529 [label="gini = 0.0\nsamples = 2\nvalue = [0, 3, 0]\nclass = Middle Value", fillcolor="#39e581"] ;
527 -> 529 ;
530 [label="gini = 0.0\nsamples = 7\nvalue = [11, 0, 0]\nclass = Not stressed", fillcolor="#e58139"] ;
458 -> 530 ;
531 [label="TEMPR_Mean <= 0.66\ngini = 0.57\nsamples = 88\nvalue = [75, 41, 16]\nclass = Not stressed", fillcolor="#f5d0b5"] ;
433 -> 531 ;
532 [label="TEMP_Mean-10 <= 0.25\ngini = 0.63\nsamples = 44\nvalue = [23, 30, 12]\nclass = Middle Value", fillcolor="#defbea"] ;
531 -> 532 ;
533 [label="HRR_Mean-5 <= 0.19\ngini = 0.51\nsamples = 24\nvalue = [8, 25, 5]\nclass = Middle Value", fillcolor="#8ff0b8"] ;
532 -> 533 ;
534 [label="HRR_Mean-4 <= 0.19\ngini = 0.38\nsamples = 3\nvalue = [3, 0, 1]\nclass = Not stressed", fillcolor="#eeab7b"] ;
533 -> 534 ;
535 [label="gini = 0.0\nsamples = 2\nvalue = [3, 0, 0]\nclass = Not stressed", fillcolor="#e58139"] ;
534 -> 535 ;
536 [label="gini = 0.0\nsamples = 1\nvalue = [0, 0, 1]\nclass = Stressed", fillcolor="#8139e5"] ;
534 -> 536 ;
537 [label="HRR_Mean-9 <= 0.35\ngini = 0.42\nsamples = 21\nvalue = [5, 25, 4]\nclass = Middle Value", fillcolor="#76eda8"] ;
533 -> 537 ;
538 [label="HRR_Mean <= 0.24\ngini = 0.29\nsamples = 18\nvalue = [1, 25, 4]\nclass = Middle Value", fillcolor="#5fea99"] ;
537 -> 538 ;
539 [label="gini = 0.0\nsamples = 2\nvalue = [0, 0, 3]\nclass = Stressed", fillcolor="#8139e5"] ;
538 -> 539 ;
540 [label="EDAR_Std <= 0.1\ngini = 0.14\nsamples = 16\nvalue = [1, 25, 1]\nclass = Middle Value", fillcolor="#48e78b"] ;
538 -> 540 ;
541 [label="HRR_Mean-1 <= 0.25\ngini = 0.07\nsamples = 15\nvalue = [0, 25, 1]\nclass = Middle Value", fillcolor="#41e686"] ;
540 -> 541 ;
542 [label="gini = 0.0\nsamples = 14\nvalue = [0, 25, 0]\nclass = Middle Value", fillcolor="#39e581"] ;
541 -> 542 ;
543 [label="gini = 0.0\nsamples = 1\nvalue = [0, 0, 1]\nclass = Stressed", fillcolor="#8139e5"] ;
541 -> 543 ;
544 [label="gini = 0.0\nsamples = 1\nvalue = [1, 0, 0]\nclass = Not stressed", fillcolor="#e58139"] ;
540 -> 544 ;
545 [label="gini = 0.0\nsamples = 3\nvalue = [4, 0, 0]\nclass = Not stressed", fillcolor="#e58139"] ;
537 -> 545 ;
546 [label="TEMP_Mean-9 <= 0.34\ngini = 0.59\nsamples = 20\nvalue = [15, 5, 7]\nclass = Not stressed", fillcolor="#f5cdb0"] ;
532 -> 546 ;
547 [label="HRR_Mean-10 <= 0.26\ngini = 0.48\nsamples = 18\nvalue = [15, 1, 7]\nclass = Not stressed", fillcolor="#f2c09c"] ;
546 -> 547 ;
548 [label="TEMPR_Max <= 0.64\ngini = 0.56\nsamples = 12\nvalue = [7, 1, 7]\nclass = Not stressed", fillcolor="#ffffff"] ;
547 -> 548 ;
549 [label="EDAR_Amphitude <= 0.18\ngini = 0.46\nsamples = 9\nvalue = [2, 1, 7]\nclass = Stressed", fillcolor="#b083ef"] ;
548 -> 549 ;
550 [label="TEMP_Mean-7 <= 0.25\ngini = 0.22\nsamples = 8\nvalue = [0, 1, 7]\nclass = Stressed", fillcolor="#9355e9"] ;
549 -> 550 ;
551 [label="gini = 0.0\nsamples = 1\nvalue = [0, 1, 0]\nclass = Middle Value", fillcolor="#39e581"] ;
550 -> 551 ;
552 [label="gini = 0.0\nsamples = 7\nvalue = [0, 0, 7]\nclass = Stressed", fillcolor="#8139e5"] ;
550 -> 552 ;
553 [label="gini = 0.0\nsamples = 1\nvalue = [2, 0, 0]\nclass = Not stressed", fillcolor="#e58139"] ;
549 -> 553 ;
554 [label="gini = 0.0\nsamples = 3\nvalue = [5, 0, 0]\nclass = Not stressed", fillcolor="#e58139"] ;
548 -> 554 ;
555 [label="gini = 0.0\nsamples = 6\nvalue = [8, 0, 0]\nclass = Not stressed", fillcolor="#e58139"] ;
547 -> 555 ;
556 [label="gini = 0.0\nsamples = 2\nvalue = [0, 4, 0]\nclass = Middle Value", fillcolor="#39e581"] ;
546 -> 556 ;
557 [label="TEMP_Mean-2 <= 0.26\ngini = 0.37\nsamples = 44\nvalue = [52, 11, 4]\nclass = Not stressed", fillcolor="#eca36e"] ;
531 -> 557 ;
558 [label="HRR_Mean-10 <= 0.26\ngini = 0.21\nsamples = 38\nvalue = [51, 7, 0]\nclass = Not stressed", fillcolor="#e99254"] ;
557 -> 558 ;
559 [label="EDAR_Kurtosis <= 0.29\ngini = 0.11\nsamples = 34\nvalue = [50, 3, 0]\nclass = Not stressed", fillcolor="#e78945"] ;
558 -> 559 ;
560 [label="gini = 0.0\nsamples = 27\nvalue = [41, 0, 0]\nclass = Not stressed", fillcolor="#e58139"] ;
559 -> 560 ;
561 [label="EDAR_Mean-5 <= 0.18\ngini = 0.38\nsamples = 7\nvalue = [9, 3, 0]\nclass = Not stressed", fillcolor="#eeab7b"] ;
559 -> 561 ;
562 [label="gini = 0.0\nsamples = 2\nvalue = [0, 3, 0]\nclass = Middle Value", fillcolor="#39e581"] ;
561 -> 562 ;
563 [label="gini = 0.0\nsamples = 5\nvalue = [9, 0, 0]\nclass = Not stressed", fillcolor="#e58139"] ;
561 -> 563 ;
564 [label="EDAR_Skew <= 0.56\ngini = 0.32\nsamples = 4\nvalue = [1, 4, 0]\nclass = Middle Value", fillcolor="#6aeca0"] ;
558 -> 564 ;
565 [label="gini = 0.0\nsamples = 1\nvalue = [1, 0, 0]\nclass = Not stressed", fillcolor="#e58139"] ;
564 -> 565 ;
566 [label="gini = 0.0\nsamples = 3\nvalue = [0, 4, 0]\nclass = Middle Value", fillcolor="#39e581"] ;
564 -> 566 ;
567 [label="HRR_Mean-8 <= 0.3\ngini = 0.59\nsamples = 6\nvalue = [1, 4, 4]\nclass = Middle Value", fillcolor="#ffffff"] ;
557 -> 567 ;
568 [label="EDAR_Mean-2 <= 0.18\ngini = 0.32\nsamples = 3\nvalue = [1, 4, 0]\nclass = Middle Value", fillcolor="#6aeca0"] ;
567 -> 568 ;
569 [label="gini = 0.0\nsamples = 2\nvalue = [0, 4, 0]\nclass = Middle Value", fillcolor="#39e581"] ;
568 -> 569 ;
570 [label="gini = 0.0\nsamples = 1\nvalue = [1, 0, 0]\nclass = Not stressed", fillcolor="#e58139"] ;
568 -> 570 ;
571 [label="gini = 0.0\nsamples = 3\nvalue = [0, 0, 4]\nclass = Stressed", fillcolor="#8139e5"] ;
567 -> 571 ;
572 [label="TEMPR_Max <= 0.66\ngini = 0.61\nsamples = 3212\nvalue = [1398, 1047, 2626]\nclass = Stressed", fillcolor="#d5bdf6"] ;
0 -> 572 [labeldistance=2.5, labelangle=-45, headlabel="False"] ;
573 [label="TEMPR_Min <= 0.14\ngini = 0.58\nsamples = 2683\nvalue = [841, 961, 2439]\nclass = Stressed", fillcolor="#c6a6f3"] ;
572 -> 573 ;
574 [label="EDAR_Mean-4 <= 0.23\ngini = 0.38\nsamples = 412\nvalue = [17, 140, 479]\nclass = Stressed", fillcolor="#a978ed"] ;
573 -> 574 ;
575 [label="HRR_Mean-3 <= 0.19\ngini = 0.48\nsamples = 191\nvalue = [10, 103, 197]\nclass = Stressed", fillcolor="#c6a5f3"] ;
574 -> 575 ;
576 [label="EDAR_Mean-8 <= 0.14\ngini = 0.1\nsamples = 31\nvalue = [0, 3, 52]\nclass = Stressed", fillcolor="#8844e6"] ;
575 -> 576 ;
577 [label="HRR_Mean-1 <= 0.11\ngini = 0.48\nsamples = 3\nvalue = [0, 3, 2]\nclass = Middle Value", fillcolor="#bdf6d5"] ;
576 -> 577 ;
578 [label="gini = 0.0\nsamples = 1\nvalue = [0, 0, 2]\nclass = Stressed", fillcolor="#8139e5"] ;
577 -> 578 ;
579 [label="gini = 0.0\nsamples = 2\nvalue = [0, 3, 0]\nclass = Middle Value", fillcolor="#39e581"] ;
577 -> 579 ;
580 [label="gini = 0.0\nsamples = 28\nvalue = [0, 0, 50]\nclass = Stressed", fillcolor="#8139e5"] ;
576 -> 580 ;
581 [label="HRR_Max <= 0.83\ngini = 0.52\nsamples = 160\nvalue = [10, 100, 145]\nclass = Stressed", fillcolor="#dac6f7"] ;
575 -> 581 ;
582 [label="HRR_Mean-7 <= 0.26\ngini = 0.45\nsamples = 123\nvalue = [10, 50, 139]\nclass = Stressed", fillcolor="#b489ef"] ;
581 -> 582 ;
583 [label="EDAR_Min <= 0.2\ngini = 0.38\nsamples = 110\nvalue = [10, 32, 137]\nclass = Stressed", fillcolor="#a572ec"] ;
582 -> 583 ;
584 [label="HRR_Mean-7 <= 0.23\ngini = 0.58\nsamples = 29\nvalue = [4, 20, 19]\nclass = Middle Value", fillcolor="#f7fefa"] ;
583 -> 584 ;
585 [label="HRR_Mean-3 <= 0.2\ngini = 0.37\nsamples = 17\nvalue = [1, 20, 5]\nclass = Middle Value", fillcolor="#72eca5"] ;
584 -> 585 ;
586 [label="TEMP_Mean-6 <= 0.24\ngini = 0.38\nsamples = 3\nvalue = [1, 0, 3]\nclass = Stressed", fillcolor="#ab7bee"] ;
585 -> 586 ;
587 [label="gini = 0.0\nsamples = 2\nvalue = [0, 0, 3]\nclass = Stressed", fillcolor="#8139e5"] ;
586 -> 587 ;
588 [label="gini = 0.0\nsamples = 1\nvalue = [1, 0, 0]\nclass = Not stressed", fillcolor="#e58139"] ;
586 -> 588 ;
589 [label="EDAR_Mean-6 <= 0.22\ngini = 0.17\nsamples = 14\nvalue = [0, 20, 2]\nclass = Middle Value", fillcolor="#4de88e"] ;
585 -> 589 ;
590 [label="gini = 0.0\nsamples = 12\nvalue = [0, 20, 0]\nclass = Middle Value", fillcolor="#39e581"] ;
589 -> 590 ;
591 [label="gini = 0.0\nsamples = 2\nvalue = [0, 0, 2]\nclass = Stressed", fillcolor="#8139e5"] ;
589 -> 591 ;
592 [label="TEMP_Mean-3 <= 0.2\ngini = 0.29\nsamples = 12\nvalue = [3, 0, 14]\nclass = Stressed", fillcolor="#9c63eb"] ;
584 -> 592 ;
593 [label="gini = 0.0\nsamples = 2\nvalue = [3, 0, 0]\nclass = Not stressed", fillcolor="#e58139"] ;
592 -> 593 ;
594 [label="gini = 0.0\nsamples = 10\nvalue = [0, 0, 14]\nclass = Stressed", fillcolor="#8139e5"] ;
592 -> 594 ;
595 [label="EDAR_Max <= 0.21\ngini = 0.24\nsamples = 81\nvalue = [6, 12, 118]\nclass = Stressed", fillcolor="#9356e9"] ;
583 -> 595 ;
596 [label="HRR_Std <= 0.1\ngini = 0.41\nsamples = 15\nvalue = [0, 7, 17]\nclass = Stressed", fillcolor="#b58bf0"] ;
595 -> 596 ;
597 [label="HRR_Mean-4 <= 0.2\ngini = 0.26\nsamples = 13\nvalue = [0, 3, 17]\nclass = Stressed", fillcolor="#975cea"] ;
596 -> 597 ;
598 [label="gini = 0.0\nsamples = 1\nvalue = [0, 1, 0]\nclass = Middle Value", fillcolor="#39e581"] ;
597 -> 598 ;
599 [label="TEMP_Mean-5 <= 0.26\ngini = 0.19\nsamples = 12\nvalue = [0, 2, 17]\nclass = Stressed", fillcolor="#9050e8"] ;
597 -> 599 ;
600 [label="TEMPR_Std <= 0.13\ngini = 0.1\nsamples = 11\nvalue = [0, 1, 17]\nclass = Stressed", fillcolor="#8845e7"] ;
599 -> 600 ;
601 [label="gini = 0.0\nsamples = 9\nvalue = [0, 0, 16]\nclass = Stressed", fillcolor="#8139e5"] ;
600 -> 601 ;
602 [label="EDAR_Mean <= 0.21\ngini = 0.5\nsamples = 2\nvalue = [0, 1, 1]\nclass = Middle Value", fillcolor="#ffffff"] ;
600 -> 602 ;
603 [label="gini = 0.0\nsamples = 1\nvalue = [0, 0, 1]\nclass = Stressed", fillcolor="#8139e5"] ;
602 -> 603 ;
604 [label="gini = 0.0\nsamples = 1\nvalue = [0, 1, 0]\nclass = Middle Value", fillcolor="#39e581"] ;
602 -> 604 ;
605 [label="gini = 0.0\nsamples = 1\nvalue = [0, 1, 0]\nclass = Middle Value", fillcolor="#39e581"] ;
599 -> 605 ;
606 [label="gini = 0.0\nsamples = 2\nvalue = [0, 4, 0]\nclass = Middle Value", fillcolor="#39e581"] ;
596 -> 606 ;
607 [label="TEMPR_Std <= 0.24\ngini = 0.18\nsamples = 66\nvalue = [6, 5, 101]\nclass = Stressed", fillcolor="#8e4ee8"] ;
595 -> 607 ;
608 [label="HRR_Min <= 0.66\ngini = 0.06\nsamples = 59\nvalue = [0, 3, 99]\nclass = Stressed", fillcolor="#853fe6"] ;
607 -> 608 ;
609 [label="HRR_RMS <= 0.1\ngini = 0.34\nsamples = 7\nvalue = [0, 3, 11]\nclass = Stressed", fillcolor="#a36fec"] ;
608 -> 609 ;
610 [label="gini = 0.0\nsamples = 1\nvalue = [0, 3, 0]\nclass = Middle Value", fillcolor="#39e581"] ;
609 -> 610 ;
611 [label="gini = 0.0\nsamples = 6\nvalue = [0, 0, 11]\nclass = Stressed", fillcolor="#8139e5"] ;
609 -> 611 ;
612 [label="gini = 0.0\nsamples = 52\nvalue = [0, 0, 88]\nclass = Stressed", fillcolor="#8139e5"] ;
608 -> 612 ;
613 [label="EDAR_Mean-10 <= 0.2\ngini = 0.56\nsamples = 7\nvalue = [6, 2, 2]\nclass = Not stressed", fillcolor="#f2c09c"] ;
607 -> 613 ;
614 [label="gini = 0.0\nsamples = 3\nvalue = [6, 0, 0]\nclass = Not stressed", fillcolor="#e58139"] ;
613 -> 614 ;
615 [label="HRR_Mean-6 <= 0.2\ngini = 0.5\nsamples = 4\nvalue = [0, 2, 2]\nclass = Middle Value", fillcolor="#ffffff"] ;
613 -> 615 ;
616 [label="gini = 0.0\nsamples = 2\nvalue = [0, 2, 0]\nclass = Middle Value", fillcolor="#39e581"] ;
615 -> 616 ;
617 [label="gini = 0.0\nsamples = 2\nvalue = [0, 0, 2]\nclass = Stressed", fillcolor="#8139e5"] ;
615 -> 617 ;
618 [label="EDAR_Mean-7 <= 0.2\ngini = 0.18\nsamples = 13\nvalue = [0, 18, 2]\nclass = Middle Value", fillcolor="#4fe88f"] ;
582 -> 618 ;
619 [label="EDAR_Duration <= 0.13\ngini = 0.44\nsamples = 2\nvalue = [0, 1, 2]\nclass = Stressed", fillcolor="#c09cf2"] ;
618 -> 619 ;
620 [label="gini = 0.0\nsamples = 1\nvalue = [0, 0, 2]\nclass = Stressed", fillcolor="#8139e5"] ;
619 -> 620 ;
621 [label="gini = 0.0\nsamples = 1\nvalue = [0, 1, 0]\nclass = Middle Value", fillcolor="#39e581"] ;
619 -> 621 ;
622 [label="gini = 0.0\nsamples = 11\nvalue = [0, 17, 0]\nclass = Middle Value", fillcolor="#39e581"] ;
618 -> 622 ;
623 [label="EDAR_Mean-7 <= 0.19\ngini = 0.19\nsamples = 37\nvalue = [0, 50, 6]\nclass = Middle Value", fillcolor="#51e890"] ;
581 -> 623 ;
624 [label="gini = 0.0\nsamples = 2\nvalue = [0, 0, 3]\nclass = Stressed", fillcolor="#8139e5"] ;
623 -> 624 ;
625 [label="EDAR_Mean-9 <= 0.22\ngini = 0.11\nsamples = 35\nvalue = [0, 50, 3]\nclass = Middle Value", fillcolor="#45e789"] ;
623 -> 625 ;
626 [label="gini = 0.0\nsamples = 29\nvalue = [0, 45, 0]\nclass = Middle Value", fillcolor="#39e581"] ;
625 -> 626 ;
627 [label="EDAR_Min <= 0.21\ngini = 0.47\nsamples = 6\nvalue = [0, 5, 3]\nclass = Middle Value", fillcolor="#b0f5cd"] ;
625 -> 627 ;
628 [label="gini = 0.0\nsamples = 3\nvalue = [0, 0, 3]\nclass = Stressed", fillcolor="#8139e5"] ;
627 -> 628 ;
629 [label="gini = 0.0\nsamples = 3\nvalue = [0, 5, 0]\nclass = Middle Value", fillcolor="#39e581"] ;
627 -> 629 ;
630 [label="EDAR_Mean-4 <= 0.32\ngini = 0.24\nsamples = 221\nvalue = [7, 37, 282]\nclass = Stressed", fillcolor="#9457e9"] ;
574 -> 630 ;
631 [label="TEMP_Mean-10 <= 0.23\ngini = 0.16\nsamples = 202\nvalue = [7, 20, 277]\nclass = Stressed", fillcolor="#8d4ce7"] ;
630 -> 631 ;
632 [label="EDAR_Mean <= 0.29\ngini = 0.34\nsamples = 78\nvalue = [4, 20, 93]\nclass = Stressed", fillcolor="#a06aeb"] ;
631 -> 632 ;
633 [label="HRR_Max <= 0.84\ngini = 0.27\nsamples = 70\nvalue = [4, 12, 89]\nclass = Stressed", fillcolor="#975be9"] ;
632 -> 633 ;
634 [label="EDAR_Mean-6 <= 0.22\ngini = 0.14\nsamples = 61\nvalue = [4, 3, 87]\nclass = Stressed", fillcolor="#8b48e7"] ;
633 -> 634 ;
635 [label="EDAR_Skew <= 0.38\ngini = 0.44\nsamples = 2\nvalue = [2, 0, 1]\nclass = Not stressed", fillcolor="#f2c09c"] ;
634 -> 635 ;
636 [label="gini = 0.0\nsamples = 1\nvalue = [0, 0, 1]\nclass = Stressed", fillcolor="#8139e5"] ;
635 -> 636 ;
637 [label="gini = 0.0\nsamples = 1\nvalue = [2, 0, 0]\nclass = Not stressed", fillcolor="#e58139"] ;
635 -> 637 ;
638 [label="TEMPR_Std <= 0.16\ngini = 0.11\nsamples = 59\nvalue = [2, 3, 86]\nclass = Stressed", fillcolor="#8844e6"] ;
634 -> 638 ;
639 [label="HRR_Max <= 0.69\ngini = 0.05\nsamples = 52\nvalue = [0, 2, 79]\nclass = Stressed", fillcolor="#843ee6"] ;
638 -> 639 ;
640 [label="HRR_Mean <= 0.68\ngini = 0.38\nsamples = 5\nvalue = [0, 2, 6]\nclass = Stressed", fillcolor="#ab7bee"] ;
639 -> 640 ;
641 [label="gini = 0.0\nsamples = 4\nvalue = [0, 0, 6]\nclass = Stressed", fillcolor="#8139e5"] ;
640 -> 641 ;
642 [label="gini = 0.0\nsamples = 1\nvalue = [0, 2, 0]\nclass = Middle Value", fillcolor="#39e581"] ;
640 -> 642 ;
643 [label="gini = 0.0\nsamples = 47\nvalue = [0, 0, 73]\nclass = Stressed", fillcolor="#8139e5"] ;
639 -> 643 ;
644 [label="HRR_Mean-2 <= 0.21\ngini = 0.46\nsamples = 7\nvalue = [2, 1, 7]\nclass = Stressed", fillcolor="#b083ef"] ;
638 -> 644 ;
645 [label="HRR_Max <= 0.69\ngini = 0.44\nsamples = 3\nvalue = [2, 1, 0]\nclass = Not stressed", fillcolor="#f2c09c"] ;
644 -> 645 ;
646 [label="gini = 0.0\nsamples = 1\nvalue = [0, 1, 0]\nclass = Middle Value", fillcolor="#39e581"] ;
645 -> 646 ;
647 [label="gini = 0.0\nsamples = 2\nvalue = [2, 0, 0]\nclass = Not stressed", fillcolor="#e58139"] ;
645 -> 647 ;
648 [label="gini = 0.0\nsamples = 4\nvalue = [0, 0, 7]\nclass = Stressed", fillcolor="#8139e5"] ;
644 -> 648 ;
649 [label="EDAR_Mean-7 <= 0.28\ngini = 0.3\nsamples = 9\nvalue = [0, 9, 2]\nclass = Middle Value", fillcolor="#65eb9d"] ;
633 -> 649 ;
650 [label="gini = 0.0\nsamples = 7\nvalue = [0, 9, 0]\nclass = Middle Value", fillcolor="#39e581"] ;
649 -> 650 ;
651 [label="gini = 0.0\nsamples = 2\nvalue = [0, 0, 2]\nclass = Stressed", fillcolor="#8139e5"] ;
649 -> 651 ;
652 [label="HRR_Mean-4 <= 0.11\ngini = 0.44\nsamples = 8\nvalue = [0, 8, 4]\nclass = Middle Value", fillcolor="#9cf2c0"] ;
632 -> 652 ;
653 [label="gini = 0.0\nsamples = 2\nvalue = [0, 0, 4]\nclass = Stressed", fillcolor="#8139e5"] ;
652 -> 653 ;
654 [label="gini = 0.0\nsamples = 6\nvalue = [0, 8, 0]\nclass = Middle Value", fillcolor="#39e581"] ;
652 -> 654 ;
655 [label="EDAR_Mean-5 <= 0.24\ngini = 0.03\nsamples = 124\nvalue = [3, 0, 184]\nclass = Stressed", fillcolor="#833ce5"] ;
631 -> 655 ;
656 [label="HRR_RMS <= 0.16\ngini = 0.38\nsamples = 9\nvalue = [3, 0, 9]\nclass = Stressed", fillcolor="#ab7bee"] ;
655 -> 656 ;
657 [label="TEMP_Mean-2 <= 0.26\ngini = 0.18\nsamples = 8\nvalue = [1, 0, 9]\nclass = Stressed", fillcolor="#8f4fe8"] ;
656 -> 657 ;
658 [label="gini = 0.0\nsamples = 5\nvalue = [0, 0, 7]\nclass = Stressed", fillcolor="#8139e5"] ;
657 -> 658 ;
659 [label="TEMP_Mean-5 <= 0.27\ngini = 0.44\nsamples = 3\nvalue = [1, 0, 2]\nclass = Stressed", fillcolor="#c09cf2"] ;
657 -> 659 ;
660 [label="gini = 0.0\nsamples = 1\nvalue = [1, 0, 0]\nclass = Not stressed", fillcolor="#e58139"] ;
659 -> 660 ;
661 [label="gini = 0.0\nsamples = 2\nvalue = [0, 0, 2]\nclass = Stressed", fillcolor="#8139e5"] ;
659 -> 661 ;
662 [label="gini = 0.0\nsamples = 1\nvalue = [2, 0, 0]\nclass = Not stressed", fillcolor="#e58139"] ;
656 -> 662 ;
663 [label="gini = 0.0\nsamples = 115\nvalue = [0, 0, 175]\nclass = Stressed", fillcolor="#8139e5"] ;
655 -> 663 ;
664 [label="HRR_Mean <= 0.75\ngini = 0.35\nsamples = 19\nvalue = [0, 17, 5]\nclass = Middle Value", fillcolor="#73eda6"] ;
630 -> 664 ;
665 [label="gini = 0.0\nsamples = 13\nvalue = [0, 16, 0]\nclass = Middle Value", fillcolor="#39e581"] ;
664 -> 665 ;
666 [label="HRR_Mean-3 <= 0.23\ngini = 0.28\nsamples = 6\nvalue = [0, 1, 5]\nclass = Stressed", fillcolor="#9a61ea"] ;
664 -> 666 ;
667 [label="gini = 0.0\nsamples = 1\nvalue = [0, 1, 0]\nclass = Middle Value", fillcolor="#39e581"] ;
666 -> 667 ;
668 [label="gini = 0.0\nsamples = 5\nvalue = [0, 0, 5]\nclass = Stressed", fillcolor="#8139e5"] ;
666 -> 668 ;
669 [label="EDAR_Amphitude <= 0.03\ngini = 0.6\nsamples = 2271\nvalue = [824, 821, 1960]\nclass = Stressed", fillcolor="#ccaef4"] ;
573 -> 669 ;
670 [label="HRR_Max <= 0.83\ngini = 0.65\nsamples = 1233\nvalue = [524, 529, 870]\nclass = Stressed", fillcolor="#e0cff9"] ;
669 -> 670 ;
671 [label="TEMP_Mean-6 <= 0.17\ngini = 0.64\nsamples = 1113\nvalue = [424, 498, 817]\nclass = Stressed", fillcolor="#dfccf8"] ;
670 -> 671 ;
672 [label="HRR_Mean-10 <= 0.25\ngini = 0.62\nsamples = 77\nvalue = [65, 26, 36]\nclass = Not stressed", fillcolor="#f7d7c0"] ;
671 -> 672 ;
673 [label="EDAR_Mean-2 <= 0.25\ngini = 0.55\nsamples = 65\nvalue = [64, 25, 17]\nclass = Not stressed", fillcolor="#f2c2a0"] ;
672 -> 673 ;
674 [label="EDAR_Mean-8 <= 0.15\ngini = 0.41\nsamples = 46\nvalue = [60, 15, 6]\nclass = Not stressed", fillcolor="#eda978"] ;
673 -> 674 ;
675 [label="Num_PeaksR <= 0.25\ngini = 0.07\nsamples = 14\nvalue = [26, 0, 1]\nclass = Not stressed", fillcolor="#e68641"] ;
674 -> 675 ;
676 [label="gini = 0.0\nsamples = 12\nvalue = [24, 0, 0]\nclass = Not stressed", fillcolor="#e58139"] ;
675 -> 676 ;
677 [label="HRR_RMS <= 0.14\ngini = 0.44\nsamples = 2\nvalue = [2, 0, 1]\nclass = Not stressed", fillcolor="#f2c09c"] ;
675 -> 677 ;
678 [label="gini = 0.0\nsamples = 1\nvalue = [2, 0, 0]\nclass = Not stressed", fillcolor="#e58139"] ;
677 -> 678 ;
679 [label="gini = 0.0\nsamples = 1\nvalue = [0, 0, 1]\nclass = Stressed", fillcolor="#8139e5"] ;
677 -> 679 ;
680 [label="EDAR_Mean-4 <= 0.18\ngini = 0.52\nsamples = 32\nvalue = [34, 15, 5]\nclass = Not stressed", fillcolor="#f2c29f"] ;
674 -> 680 ;
681 [label="gini = 0.0\nsamples = 4\nvalue = [0, 8, 0]\nclass = Middle Value", fillcolor="#39e581"] ;
680 -> 681 ;
682 [label="EDAR_Mean-7 <= 0.26\ngini = 0.42\nsamples = 28\nvalue = [34, 7, 5]\nclass = Not stressed", fillcolor="#eda876"] ;
680 -> 682 ;
683 [label="TEMP_Mean-2 <= 0.14\ngini = 0.37\nsamples = 27\nvalue = [34, 7, 3]\nclass = Not stressed", fillcolor="#eca36f"] ;
682 -> 683 ;
684 [label="gini = 0.0\nsamples = 3\nvalue = [0, 0, 3]\nclass = Stressed", fillcolor="#8139e5"] ;
683 -> 684 ;
685 [label="TEMPR_Mean <= 0.23\ngini = 0.28\nsamples = 24\nvalue = [34, 7, 0]\nclass = Not stressed", fillcolor="#ea9b62"] ;
683 -> 685 ;
686 [label="gini = 0.0\nsamples = 2\nvalue = [0, 2, 0]\nclass = Middle Value", fillcolor="#39e581"] ;
685 -> 686 ;
687 [label="EDAR_Max <= 0.26\ngini = 0.22\nsamples = 22\nvalue = [34, 5, 0]\nclass = Not stressed", fillcolor="#e99456"] ;
685 -> 687 ;
688 [label="EDAR_Skew <= 0.44\ngini = 0.15\nsamples = 19\nvalue = [33, 3, 0]\nclass = Not stressed", fillcolor="#e78c4b"] ;
687 -> 688 ;
689 [label="EDAR_Mean-6 <= 0.21\ngini = 0.49\nsamples = 5\nvalue = [4, 3, 0]\nclass = Not stressed", fillcolor="#f8e0ce"] ;
688 -> 689 ;
690 [label="gini = 0.0\nsamples = 2\nvalue = [0, 3, 0]\nclass = Middle Value", fillcolor="#39e581"] ;
689 -> 690 ;
691 [label="gini = 0.0\nsamples = 3\nvalue = [4, 0, 0]\nclass = Not stressed", fillcolor="#e58139"] ;
689 -> 691 ;
692 [label="gini = 0.0\nsamples = 14\nvalue = [29, 0, 0]\nclass = Not stressed", fillcolor="#e58139"] ;
688 -> 692 ;
693 [label="TEMPR_Max <= 0.48\ngini = 0.44\nsamples = 3\nvalue = [1, 2, 0]\nclass = Middle Value", fillcolor="#9cf2c0"] ;
687 -> 693 ;
694 [label="gini = 0.0\nsamples = 1\nvalue = [1, 0, 0]\nclass = Not stressed", fillcolor="#e58139"] ;
693 -> 694 ;
695 [label="gini = 0.0\nsamples = 2\nvalue = [0, 2, 0]\nclass = Middle Value", fillcolor="#39e581"] ;
693 -> 695 ;
696 [label="gini = 0.0\nsamples = 1\nvalue = [0, 0, 2]\nclass = Stressed", fillcolor="#8139e5"] ;
682 -> 696 ;
697 [label="TEMPR_Max <= 0.44\ngini = 0.62\nsamples = 19\nvalue = [4, 10, 11]\nclass = Stressed", fillcolor="#f7f2fd"] ;
673 -> 697 ;
698 [label="gini = 0.0\nsamples = 7\nvalue = [0, 10, 0]\nclass = Middle Value", fillcolor="#39e581"] ;
697 -> 698 ;
699 [label="HRR_Mean-10 <= 0.17\ngini = 0.39\nsamples = 12\nvalue = [4, 0, 11]\nclass = Stressed", fillcolor="#af81ee"] ;
697 -> 699 ;
700 [label="HRR_Mean <= 0.19\ngini = 0.26\nsamples = 10\nvalue = [2, 0, 11]\nclass = Stressed", fillcolor="#985dea"] ;
699 -> 700 ;
701 [label="gini = 0.0\nsamples = 2\nvalue = [2, 0, 0]\nclass = Not stressed", fillcolor="#e58139"] ;
700 -> 701 ;
702 [label="gini = 0.0\nsamples = 8\nvalue = [0, 0, 11]\nclass = Stressed", fillcolor="#8139e5"] ;
700 -> 702 ;
703 [label="gini = 0.0\nsamples = 2\nvalue = [2, 0, 0]\nclass = Not stressed", fillcolor="#e58139"] ;
699 -> 703 ;
704 [label="EDAR_Mean-10 <= 0.25\ngini = 0.18\nsamples = 12\nvalue = [1, 1, 19]\nclass = Stressed", fillcolor="#8e4de8"] ;
672 -> 704 ;
705 [label="TEMP_Mean-7 <= 0.17\ngini = 0.09\nsamples = 11\nvalue = [1, 0, 19]\nclass = Stressed", fillcolor="#8843e6"] ;
704 -> 705 ;
706 [label="gini = 0.0\nsamples = 10\nvalue = [0, 0, 19]\nclass = Stressed", fillcolor="#8139e5"] ;
705 -> 706 ;
707 [label="gini = 0.0\nsamples = 1\nvalue = [1, 0, 0]\nclass = Not stressed", fillcolor="#e58139"] ;
705 -> 707 ;
708 [label="gini = 0.0\nsamples = 1\nvalue = [0, 1, 0]\nclass = Middle Value", fillcolor="#39e581"] ;
704 -> 708 ;
709 [label="TEMP_Mean-3 <= 0.28\ngini = 0.63\nsamples = 1036\nvalue = [359, 472, 781]\nclass = Stressed", fillcolor="#ddc9f8"] ;
671 -> 709 ;
710 [label="TEMP_Mean-9 <= 0.29\ngini = 0.63\nsamples = 726\nvalue = [232, 388, 518]\nclass = Stressed", fillcolor="#e9ddfa"] ;
709 -> 710 ;
711 [label="TEMPR_Min <= 0.29\ngini = 0.62\nsamples = 684\nvalue = [198, 366, 507]\nclass = Stressed", fillcolor="#e6d7fa"] ;
710 -> 711 ;
712 [label="TEMP_Mean-3 <= 0.22\ngini = 0.52\nsamples = 161\nvalue = [16, 81, 154]\nclass = Stressed", fillcolor="#c9aaf4"] ;
711 -> 712 ;
713 [label="HRR_Mean <= 0.36\ngini = 0.58\nsamples = 104\nvalue = [15, 68, 79]\nclass = Stressed", fillcolor="#f0e8fc"] ;
712 -> 713 ;
714 [label="gini = 0.0\nsamples = 5\nvalue = [10, 0, 0]\nclass = Not stressed", fillcolor="#e58139"] ;
713 -> 714 ;
715 [label="TEMP_Mean-2 <= 0.2\ngini = 0.53\nsamples = 99\nvalue = [5, 68, 79]\nclass = Stressed", fillcolor="#eee5fc"] ;
713 -> 715 ;
716 [label="TEMPR_Min <= 0.26\ngini = 0.41\nsamples = 40\nvalue = [5, 10, 44]\nclass = Stressed", fillcolor="#a876ed"] ;
715 -> 716 ;
717 [label="HRR_Mean-9 <= 0.2\ngini = 0.24\nsamples = 34\nvalue = [0, 7, 44]\nclass = Stressed", fillcolor="#9558e9"] ;
716 -> 717 ;
718 [label="HRR_Min <= 0.77\ngini = 0.5\nsamples = 10\nvalue = [0, 7, 7]\nclass = Middle Value", fillcolor="#ffffff"] ;
717 -> 718 ;
719 [label="gini = 0.0\nsamples = 4\nvalue = [0, 0, 7]\nclass = Stressed", fillcolor="#8139e5"] ;
718 -> 719 ;
720 [label="gini = 0.0\nsamples = 6\nvalue = [0, 7, 0]\nclass = Middle Value", fillcolor="#39e581"] ;
718 -> 720 ;
721 [label="gini = 0.0\nsamples = 24\nvalue = [0, 0, 37]\nclass = Stressed", fillcolor="#8139e5"] ;
717 -> 721 ;
722 [label="EDAR_Min <= 0.21\ngini = 0.47\nsamples = 6\nvalue = [5, 3, 0]\nclass = Not stressed", fillcolor="#f5cdb0"] ;
716 -> 722 ;
723 [label="gini = 0.0\nsamples = 3\nvalue = [5, 0, 0]\nclass = Not stressed", fillcolor="#e58139"] ;
722 -> 723 ;
724 [label="gini = 0.0\nsamples = 3\nvalue = [0, 3, 0]\nclass = Middle Value", fillcolor="#39e581"] ;
722 -> 724 ;
725 [label="TEMP_Mean-1 <= 0.2\ngini = 0.47\nsamples = 59\nvalue = [0, 58, 35]\nclass = Middle Value", fillcolor="#b0f5cd"] ;
715 -> 725 ;
726 [label="gini = 0.0\nsamples = 19\nvalue = [0, 32, 0]\nclass = Middle Value", fillcolor="#39e581"] ;
725 -> 726 ;
727 [label="TEMP_Mean-9 <= 0.19\ngini = 0.49\nsamples = 40\nvalue = [0, 26, 35]\nclass = Stressed", fillcolor="#dfccf8"] ;
725 -> 727 ;
728 [label="TEMP_Mean-7 <= 0.19\ngini = 0.2\nsamples = 16\nvalue = [0, 3, 23]\nclass = Stressed", fillcolor="#9153e8"] ;
727 -> 728 ;
729 [label="gini = 0.0\nsamples = 10\nvalue = [0, 0, 19]\nclass = Stressed", fillcolor="#8139e5"] ;
728 -> 729 ;
730 [label="EDAR_Min <= 0.21\ngini = 0.49\nsamples = 6\nvalue = [0, 3, 4]\nclass = Stressed", fillcolor="#e0cef8"] ;
728 -> 730 ;
731 [label="gini = 0.0\nsamples = 3\nvalue = [0, 3, 0]\nclass = Middle Value", fillcolor="#39e581"] ;
730 -> 731 ;
732 [label="gini = 0.0\nsamples = 3\nvalue = [0, 0, 4]\nclass = Stressed", fillcolor="#8139e5"] ;
730 -> 732 ;
733 [label="TEMPR_Max <= 0.27\ngini = 0.45\nsamples = 24\nvalue = [0, 23, 12]\nclass = Middle Value", fillcolor="#a0f3c3"] ;
727 -> 733 ;
734 [label="HRR_Mean-5 <= 0.2\ngini = 0.37\nsamples = 20\nvalue = [0, 22, 7]\nclass = Middle Value", fillcolor="#78eda9"] ;
733 -> 734 ;
735 [label="gini = 0.0\nsamples = 8\nvalue = [0, 13, 0]\nclass = Middle Value", fillcolor="#39e581"] ;
734 -> 735 ;
736 [label="HRR_Mean <= 0.75\ngini = 0.49\nsamples = 12\nvalue = [0, 9, 7]\nclass = Middle Value", fillcolor="#d3f9e3"] ;
734 -> 736 ;
737 [label="gini = 0.0\nsamples = 5\nvalue = [0, 9, 0]\nclass = Middle Value", fillcolor="#39e581"] ;
736 -> 737 ;
738 [label="gini = 0.0\nsamples = 7\nvalue = [0, 0, 7]\nclass = Stressed", fillcolor="#8139e5"] ;
736 -> 738 ;
739 [label="EDAR_Kurtosis <= 0.23\ngini = 0.28\nsamples = 4\nvalue = [0, 1, 5]\nclass = Stressed", fillcolor="#9a61ea"] ;
733 -> 739 ;
740 [label="gini = 0.0\nsamples = 3\nvalue = [0, 0, 5]\nclass = Stressed", fillcolor="#8139e5"] ;
739 -> 740 ;
741 [label="gini = 0.0\nsamples = 1\nvalue = [0, 1, 0]\nclass = Middle Value", fillcolor="#39e581"] ;
739 -> 741 ;
742 [label="EDAR_Amphitude <= 0.03\ngini = 0.27\nsamples = 57\nvalue = [1, 13, 75]\nclass = Stressed", fillcolor="#985dea"] ;
712 -> 742 ;
743 [label="EDAR_Mean-5 <= 0.3\ngini = 0.21\nsamples = 56\nvalue = [1, 9, 75]\nclass = Stressed", fillcolor="#9253e8"] ;
742 -> 743 ;
744 [label="HRR_Max <= 0.71\ngini = 0.16\nsamples = 54\nvalue = [0, 7, 75]\nclass = Stressed", fillcolor="#8d4be7"] ;
743 -> 744 ;
745 [label="gini = 0.0\nsamples = 29\nvalue = [0, 0, 43]\nclass = Stressed", fillcolor="#8139e5"] ;
744 -> 745 ;
746 [label="HRR_Max <= 0.75\ngini = 0.29\nsamples = 25\nvalue = [0, 7, 32]\nclass = Stressed", fillcolor="#9d64eb"] ;
744 -> 746 ;
747 [label="gini = 0.0\nsamples = 6\nvalue = [0, 7, 0]\nclass = Middle Value", fillcolor="#39e581"] ;
746 -> 747 ;
748 [label="gini = 0.0\nsamples = 19\nvalue = [0, 0, 32]\nclass = Stressed", fillcolor="#8139e5"] ;
746 -> 748 ;
749 [label="TEMP_Mean-6 <= 0.23\ngini = 0.44\nsamples = 2\nvalue = [1, 2, 0]\nclass = Middle Value", fillcolor="#9cf2c0"] ;
743 -> 749 ;
750 [label="gini = 0.0\nsamples = 1\nvalue = [0, 2, 0]\nclass = Middle Value", fillcolor="#39e581"] ;
749 -> 750 ;
751 [label="gini = 0.0\nsamples = 1\nvalue = [1, 0, 0]\nclass = Not stressed", fillcolor="#e58139"] ;
749 -> 751 ;
752 [label="gini = 0.0\nsamples = 1\nvalue = [0, 4, 0]\nclass = Middle Value", fillcolor="#39e581"] ;
742 -> 752 ;
753 [label="TEMP_Mean-4 <= 0.2\ngini = 0.64\nsamples = 523\nvalue = [182, 285, 353]\nclass = Stressed", fillcolor="#efe6fc"] ;
711 -> 753 ;
754 [label="EDAR_Mean <= 0.2\ngini = 0.54\nsamples = 91\nvalue = [32, 28, 99]\nclass = Stressed", fillcolor="#bd97f1"] ;
753 -> 754 ;
755 [label="TEMPR_Std <= 0.07\ngini = 0.28\nsamples = 9\nvalue = [10, 0, 2]\nclass = Not stressed", fillcolor="#ea9a61"] ;
754 -> 755 ;
756 [label="gini = 0.0\nsamples = 6\nvalue = [9, 0, 0]\nclass = Not stressed", fillcolor="#e58139"] ;
755 -> 756 ;
757 [label="EDAR_Mean-3 <= 0.2\ngini = 0.44\nsamples = 3\nvalue = [1, 0, 2]\nclass = Stressed", fillcolor="#c09cf2"] ;
755 -> 757 ;
758 [label="gini = 0.0\nsamples = 1\nvalue = [1, 0, 0]\nclass = Not stressed", fillcolor="#e58139"] ;
757 -> 758 ;
759 [label="gini = 0.0\nsamples = 2\nvalue = [0, 0, 2]\nclass = Stressed", fillcolor="#8139e5"] ;
757 -> 759 ;
760 [label="HRR_Mean-6 <= 0.23\ngini = 0.51\nsamples = 82\nvalue = [22, 28, 97]\nclass = Stressed", fillcolor="#b68cf0"] ;
754 -> 760 ;
761 [label="EDAR_Mean-4 <= 0.2\ngini = 0.42\nsamples = 61\nvalue = [11, 18, 80]\nclass = Stressed", fillcolor="#a978ed"] ;
760 -> 761 ;
762 [label="HRR_Std <= 0.05\ngini = 0.63\nsamples = 13\nvalue = [4, 10, 8]\nclass = Middle Value", fillcolor="#e3fbed"] ;
761 -> 762 ;
763 [label="TEMP_Mean-5 <= 0.19\ngini = 0.17\nsamples = 5\nvalue = [1, 10, 0]\nclass = Middle Value", fillcolor="#4de88e"] ;
762 -> 763 ;
764 [label="gini = 0.0\nsamples = 4\nvalue = [0, 10, 0]\nclass = Middle Value", fillcolor="#39e581"] ;
763 -> 764 ;
765 [label="gini = 0.0\nsamples = 1\nvalue = [1, 0, 0]\nclass = Not stressed", fillcolor="#e58139"] ;
763 -> 765 ;
766 [label="TEMP_Mean-9 <= 0.18\ngini = 0.4\nsamples = 8\nvalue = [3, 0, 8]\nclass = Stressed", fillcolor="#b083ef"] ;
762 -> 766 ;
767 [label="gini = 0.0\nsamples = 3\nvalue = [3, 0, 0]\nclass = Not stressed", fillcolor="#e58139"] ;
766 -> 767 ;
768 [label="gini = 0.0\nsamples = 5\nvalue = [0, 0, 8]\nclass = Stressed", fillcolor="#8139e5"] ;
766 -> 768 ;
769 [label="TEMPR_Std <= 0.05\ngini = 0.3\nsamples = 48\nvalue = [7, 8, 72]\nclass = Stressed", fillcolor="#995fea"] ;
761 -> 769 ;
770 [label="HRR_Mean-3 <= 0.2\ngini = 0.44\nsamples = 4\nvalue = [4, 0, 2]\nclass = Not stressed", fillcolor="#f2c09c"] ;
769 -> 770 ;
771 [label="gini = 0.0\nsamples = 3\nvalue = [4, 0, 0]\nclass = Not stressed", fillcolor="#e58139"] ;
770 -> 771 ;
772 [label="gini = 0.0\nsamples = 1\nvalue = [0, 0, 2]\nclass = Stressed", fillcolor="#8139e5"] ;
770 -> 772 ;
773 [label="EDAR_Mean-4 <= 0.24\ngini = 0.24\nsamples = 44\nvalue = [3, 8, 70]\nclass = Stressed", fillcolor="#9457e9"] ;
769 -> 773 ;
774 [label="HRR_Max <= 0.66\ngini = 0.1\nsamples = 29\nvalue = [3, 0, 53]\nclass = Stressed", fillcolor="#8844e6"] ;
773 -> 774 ;
775 [label="HRR_Mean-7 <= 0.16\ngini = 0.04\nsamples = 28\nvalue = [1, 0, 53]\nclass = Stressed", fillcolor="#833de5"] ;
774 -> 775 ;
776 [label="EDAR_Mean-10 <= 0.19\ngini = 0.28\nsamples = 3\nvalue = [1, 0, 5]\nclass = Stressed", fillcolor="#9a61ea"] ;
775 -> 776 ;
777 [label="gini = 0.0\nsamples = 2\nvalue = [0, 0, 5]\nclass = Stressed", fillcolor="#8139e5"] ;
776 -> 777 ;
778 [label="gini = 0.0\nsamples = 1\nvalue = [1, 0, 0]\nclass = Not stressed", fillcolor="#e58139"] ;
776 -> 778 ;
779 [label="gini = 0.0\nsamples = 25\nvalue = [0, 0, 48]\nclass = Stressed", fillcolor="#8139e5"] ;
775 -> 779 ;
780 [label="gini = 0.0\nsamples = 1\nvalue = [2, 0, 0]\nclass = Not stressed", fillcolor="#e58139"] ;
774 -> 780 ;
781 [label="TEMP_Mean-3 <= 0.18\ngini = 0.44\nsamples = 15\nvalue = [0, 8, 17]\nclass = Stressed", fillcolor="#bc96f1"] ;
773 -> 781 ;
782 [label="TEMP_Mean-7 <= 0.19\ngini = 0.28\nsamples = 4\nvalue = [0, 5, 1]\nclass = Middle Value", fillcolor="#61ea9a"] ;
781 -> 782 ;
783 [label="gini = 0.0\nsamples = 3\nvalue = [0, 5, 0]\nclass = Middle Value", fillcolor="#39e581"] ;
782 -> 783 ;
784 [label="gini = 0.0\nsamples = 1\nvalue = [0, 0, 1]\nclass = Stressed", fillcolor="#8139e5"] ;
782 -> 784 ;
785 [label="HRR_Mean-6 <= 0.21\ngini = 0.27\nsamples = 11\nvalue = [0, 3, 16]\nclass = Stressed", fillcolor="#995eea"] ;
781 -> 785 ;
786 [label="HRR_Mean-9 <= 0.22\ngini = 0.11\nsamples = 10\nvalue = [0, 1, 16]\nclass = Stressed", fillcolor="#8945e7"] ;
785 -> 786 ;
787 [label="gini = 0.0\nsamples = 8\nvalue = [0, 0, 14]\nclass = Stressed", fillcolor="#8139e5"] ;
786 -> 787 ;
788 [label="EDAR_Mean <= 0.25\ngini = 0.44\nsamples = 2\nvalue = [0, 1, 2]\nclass = Stressed", fillcolor="#c09cf2"] ;
786 -> 788 ;
789 [label="gini = 0.0\nsamples = 1\nvalue = [0, 0, 2]\nclass = Stressed", fillcolor="#8139e5"] ;
788 -> 789 ;
790 [label="gini = 0.0\nsamples = 1\nvalue = [0, 1, 0]\nclass = Middle Value", fillcolor="#39e581"] ;
788 -> 790 ;
791 [label="gini = 0.0\nsamples = 1\nvalue = [0, 2, 0]\nclass = Middle Value", fillcolor="#39e581"] ;
785 -> 791 ;
792 [label="TEMPR_Max <= 0.61\ngini = 0.65\nsamples = 21\nvalue = [11, 10, 17]\nclass = Stressed", fillcolor="#e3d3f9"] ;
760 -> 792 ;
793 [label="HRR_Mean-9 <= 0.31\ngini = 0.56\nsamples = 14\nvalue = [2, 10, 14]\nclass = Stressed", fillcolor="#e0cef8"] ;
792 -> 793 ;
794 [label="HRR_Mean-7 <= 0.25\ngini = 0.53\nsamples = 9\nvalue = [2, 10, 4]\nclass = Middle Value", fillcolor="#9cf2c0"] ;
793 -> 794 ;
795 [label="EDAR_Mean-9 <= 0.2\ngini = 0.57\nsamples = 5\nvalue = [2, 1, 4]\nclass = Stressed", fillcolor="#cdb0f5"] ;
794 -> 795 ;
796 [label="gini = 0.0\nsamples = 3\nvalue = [0, 0, 4]\nclass = Stressed", fillcolor="#8139e5"] ;
795 -> 796 ;
797 [label="TEMP_Mean-3 <= 0.18\ngini = 0.44\nsamples = 2\nvalue = [2, 1, 0]\nclass = Not stressed", fillcolor="#f2c09c"] ;
795 -> 797 ;
798 [label="gini = 0.0\nsamples = 1\nvalue = [0, 1, 0]\nclass = Middle Value", fillcolor="#39e581"] ;
797 -> 798 ;
799 [label="gini = 0.0\nsamples = 1\nvalue = [2, 0, 0]\nclass = Not stressed", fillcolor="#e58139"] ;
797 -> 799 ;
